svm_type c_svc
kernel_type polynomial
degree 3
gamma 0.125
coef0 0
nr_class 11
total_sv 4186
rho 2.62218 -0.647468 0.60835 -3.05047 0.350135 4.58025 3.41161 -9.30011 0.325409 4.41909 -1.22384 -1.13256 -1.22069 -1.08678 2.34479 -1.10121 -1.05928 -1.57014 -4.46386 -14.3904 9.56185 -2.32175 1.01359 -3.47484 -1.90812 3.0756 1.44024 2.80082 -4.89585 1.02368 -15.9383 -2.6686 1.84755 1.20576 -1.56387 0.986059 -1.8205 -1.39063 8.94599 1.90586 1.01256 19.2594 -19.0804 1.37411 1.17225 -1.00559 -1.00614 -0.784094 -1.06539 -4.24884 1.51578 1.16733 1.26365 1.09862 6.35252
label 0 2 6 7 5 9 1 8 10 4 3
nr_sv 2920 162 147 162 113 140 133 113 48 148 100
SV
0 5.445757934967521e-07 0 0 0 0 0 0 0 0 1:3 2:15 3:14 4:11 5:17 6:27 7:27 8:24 
0 0 0.0003006971649923904 0 0 0 0 0 0 0 1:20 2:17 3:1 4:19 5:9 6:28 7:14 8:30 
0 0 0 0 0 0 0 0 0.02906075260687582 0 1:14 2:0 3:11 4:32 5:20 6:18 7:0 8:24 
0 0.0004323451764354168 0 0 0 0 0 0 0 0 1:23 2:15 3:6 4:1 5:22 6:27 7:1 8:0 
0 0 0.00233459566443479 0 0 0 0 0 0 0 1:0 2:23 3:12 4:21 5:24 6:33 7:13 8:11 
0 0 0 0 0 0.0450229917654523 0 0 0 0 1:2 2:16 3:3 4:11 5:8 6:1 7:28 8:34 
0 0 0 0.008356776687520523 0 0 0 0 0 0 1:14 2:19 3:10 4:35 5:22 6:33 7:23 8:34 
0 0 0 0.0005417492716697123 0 0 0 0 0 0 1:11 2:5 3:20 4:4 5:22 6:23 7:25 8:20 
0 0 0 0.0008055868258615583 0 0 0 0 0.001850949306203072 0 1:16 2:0 3:17 4:26 5:22 6:23 7:0 8:16 
0 0.000219436478350438 0 0 0.03281651382683971 0 0 0 0 0 1:13 2:17 3:8 4:4 5:12 6:35 7:8 8:35 
0 3.100286624477234e-06 0 1.279033546329062e-05 0 0 0 0 0 0.03322818924112739 1:3 2:14 3:6 4:21 5:24 6:11 7:1 8:0 
0.002068953202922456 0 0 0 0 0 0 0 0 0 1:6 2:21 3:4 4:5 5:17 6:6 7:10 8:28 
0 0 0 0 0 0.008657690134047031 0 0 0 0 1:4 2:10 3:12 4:7 5:21 6:3 7:23 8:25 
0 0 5.667555688247923e-06 0 0 0 0 0 0 0 1:7 2:3 3:23 4:10 5:4 6:25 7:20 8:17 
0.000719710533454851 0 0 0 0 0 0 0 0 0 1:9 2:23 3:10 4:0 5:21 6:7 7:7 8:1 
0 0 1.663891643081237e-05 0 0 0 0 0 0 0 1:3 2:2 3:20 4:18 5:13 6:29 7:20 8:7 
0 0 0.0004118199098534176 0.0055958158895155 0 0 0 0 0 0 1:3 2:17 3:22 4:13 5:12 6:35 7:30 8:31 
0 0 0 0 0 0.02149201214781888 0 0 0 0 1:3 2:19 3:12 4:30 5:9 6:2 7:6 8:34 
0.0008016934652143754 0 0 0 0 0 0 0 0 0 1:8 2:11 3:23 4:25 5:25 6:9 7:9 8:27 
0 0.006431230554326501 0 0 0 0 0 0 0 0 1:0 2:8 3:13 4:8 5:3 6:20 7:24 8:0 
0 0.0001260010200516199 0.0006058806662643038 0 0 0 0 0 0 0 1:0 2:21 3:12 4:5 5:21 6:24 7:19 8:33 
0 0 0 0 0.002995437180533008 0 0.0002885208412147448 0 0 0 1:1 2:16 3:5 4:23 5:2 6:31 7:2 8:15 
0 0 0 0.0008426411121245781 0 0 0 0 0 0 1:16 2:2 3:0 4:20 5:21 6:22 7:23 8:29 
0 0 0 0 1.835807726680472e-05 0 0.0002723514801930278 0 0 0 1:15 2:10 3:11 4:25 5:9 6:31 7:2 8:0 
0 0.005257932920777105 0 0 0 0 0 0 0 0 1:18 2:30 3:16 4:3 5:34 6:33 7:2 8:29 
0 0 0 0 0 0 0.05622640969912965 0 0 0 1:15 2:13 3:4 4:21 5:11 6:35 7:25 8:24 
0 0 0 0.0001129013614232689 0 0 0 0 0.001057171542946944 0.000925771527471492 1:6 2:3 3:22 4:12 5:8 6:13 7:20 8:0 
0 0 0 0 0 0 1.346568575057661e-05 0 0 0 1:3 2:18 3:9 4:23 5:0 6:23 7:14 8:6 
0 0 0 0 0 0 0.002659731854785811 0 0 0 1:21 2:15 3:0 4:5 5:34 6:34 7:1 8:9 
0 4.356783475681872e-06 0.0002092597799609934 0 0 0 1.047982971036577e-05 0 0 0 1:5 2:16 3:15 4:8 5:16 6:27 7:7 8:32 
0 0 0 0.0003857065579060691 0 0 0 0 0 0 1:16 2:6 3:7 4:28 5:31 6:27 7:12 8:25 
0.9730753904885551 0 0 0 0 0 0 0 0 0.7304237300708138 1:2 2:11 3:10 4:9 5:2 6:6 7:12 8:8 
0 0.0004053338964654453 0 0 0 0 0 0 0 0 1:19 2:8 3:1 4:32 5:13 6:33 7:4 8:12 
0 0.01375558116775571 0.004222582898736849 0 0 0 3.242888901867046e-06 0 0 0 1:10 2:5 3:0 4:12 5:27 6:34 7:13 8:13 
0 0.0005765963542353163 0.001431623767567279 0 4.748334346130086e-07 0 2.615508914342247e-05 0 0 0 1:14 2:14 3:7 4:2 5:10 6:30 7:22 8:6 
0 0 0 2.458760010062219e-05 0 0 0 0 0.04382082940687607 0 1:23 2:0 3:0 4:6 5:3 6:14 7:8 8:16 
0 1.676075107082804e-06 0 0 0 0 0 0 0 0 1:1 2:8 3:11 4:10 5:32 6:17 7:8 8:29 
0 2.883295773091919e-05 0 0 0 0 0 0 0 0 1:25 2:0 3:4 4:18 5:24 6:30 7:7 8:3 
0.02496920470714383 0 0 0 0 0 0 0 0 0 1:6 2:17 3:17 4:0 5:24 6:10 7:6 8:12 
0 4.82165535786617e-07 0 0 0 0 0 0 0 0 1:6 2:0 3:13 4:26 5:28 6:25 7:4 8:18 
0 0 1.061563667840976e-05 1.943547892769255e-05 0 0 0 0 0 0 1:17 2:0 3:7 4:8 5:18 6:20 7:24 8:4 
0 0 0 0 0 0 0 0 0.002386897888502677 0 1:17 2:13 3:6 4:24 5:9 6:15 7:17 8:11 
0 0 0 0 0 0 0 0 0.007802848010522332 0 1:1 2:19 3:20 4:25 5:11 6:22 7:2 8:31 
0 1.024205499834508e-06 0 0 0 0 0 0 0 0.009584168918278133 1:0 2:18 3:10 4:17 5:17 6:13 7:17 8:12 
0 1.394954574806662e-05 1.853715952514326e-05 0.008737210362733228 0 0 0 0 0 0 1:2 2:12 3:12 4:30 5:5 6:28 7:10 8:34 
0 0 0.0002587473110897345 0 0 0 0 0 0 0 1:0 2:21 3:5 4:20 5:17 6:22 7:7 8:23 
0 0.001630400916850007 0 0 0 0 0 0 0 0 1:22 2:3 3:9 4:13 5:15 6:33 7:21 8:5 
0 4.312235314482384e-06 3.482343119716236e-05 1.094908767033159e-05 0 0 0 0 0 0 1:19 2:2 3:2 4:23 5:21 6:22 7:2 8:6 
0 0 0 1.883581629467528e-05 0 0 0 0 0 0 1:17 2:7 3:5 4:32 5:18 6:24 7:3 8:31 
0.1930283333287096 0 0 0 0 0 0 0 0 0 1:8 2:3 3:20 4:22 5:5 6:7 7:1 8:14 
0 0.0001579580966126871 0.000448921895352324 0 0 0 8.049758628117161e-05 0 0 0 1:16 2:4 3:16 4:7 5:8 6:33 7:17 8:18 
0 0 0 0.000604241561934718 0 0 0 0 0 0 1:11 2:13 3:20 4:33 5:16 6:32 7:6 8:31 
0.01778406376195074 0 0 0 0 0 0 0 0 0 1:17 2:5 3:21 4:34 5:3 6:9 7:0 8:18 
0 1.479466959890896e-05 2.03478019599551e-05 0 0 0 0 0 0 0 1:2 2:6 3:19 4:10 5:9 6:24 7:13 8:14 
0 0 0 0 0 0 0 0 0.005077826305741232 0 1:22 2:14 3:9 4:17 5:0 6:16 7:23 8:5 
0.01023237013495443 0 0 0 0 0 0 0 0 0 1:14 2:11 3:4 4:2 5:31 6:7 7:13 8:31 
0 1 1 1 0.09192994292324989 0 1 0 1 0 1:1 2:3 3:2 4:10 5:1 6:9 7:6 8:8 
0 0 0 0 0.01873969227356344 0 0.0437036372823708 0 0 0 1:20 2:0 3:3 4:21 5:2 6:30 7:5 8:5 
0 0 0 0 0 0 0 0 0.0007315316377034012 0 1:5 2:4 3:18 4:7 5:20 6:13 7:25 8:23 
0 0 0 0 0 0.003629798716494993 0 0 0 0 1:4 2:8 3:23 4:17 5:12 6:2 7:20 8:28 
0 7.58587686779261e-07 0 0 0 0 0 0 0 0 1:8 2:20 3:6 4:4 5:20 6:24 7:22 8:5 
0 0.0005516471117189198 0 3.582652436484339e-05 0 0 0 0 0 0 1:12 2:6 3:5 4:27 5:13 6:21 7:12 8:33 
0 0 0 0 0 0 1.883156320445844e-06 0 0 0 1:10 2:2 3:3 4:9 5:8 6:35 7:31 8:12 
0 5.714408210561679e-05 0 0 0.001598198470889553 0 0.001558913847947172 9.687751625335192e-05 0 0 1:8 2:15 3:5 4:15 5:13 6:33 7:23 8:5 
0 0 0.0001965845209473541 0 0.004122352459311206 0 0 0 0 0 1:2 2:1 3:20 4:16 5:7 6:34 7:30 8:22 
0 1.224496323435004e-07 0 0 0 0 0 0 0 0 1:1 2:20 3:23 4:26 5:22 6:33 7:23 8:22 
0 3.600458471706538e-05 0 0 0 0 0 0 0 0 1:9 2:20 3:8 4:35 5:22 6:32 7:7 8:23 
0 0 0 0 0 0 0 0 0 0.009707233470938225 1:18 2:12 3:11 4:10 5:14 6:11 7:31 8:9 
0 0 0 0 0 0.004864311438504895 0 0 0 0 1:7 2:12 3:16 4:33 5:10 6:3 7:18 8:27 
0 0 5.679580637648489e-07 0 4.662368513427153e-05 0 0.0005780579645275367 0 0 0 1:10 2:10 3:18 4:5 5:21 6:34 7:21 8:7 
0 0.006434771141858306 0.006813642154296793 0 0.004390886762212888 0 0.001618300018006052 0 0 0 1:13 2:7 3:2 4:17 5:19 6:33 7:16 8:16 
0 2.019414908757556e-05 0 0 0 0 0 0 0 0 1:9 2:2 3:21 4:0 5:29 6:22 7:5 8:23 
0 0 0 0 0 0 0 0 5.389478804169896e-07 0 1:12 2:3 3:21 4:1 5:11 6:19 7:28 8:18 
0.01729036170751303 0 0 0 0 0 0 0 0 0 1:1 2:21 3:15 4:5 5:24 6:8 7:11 8:8 
0 0 0 0.005194292651726123 0 0 0 0 0.0148178306058275 0.02190409831177159 1:12 2:15 3:1 4:12 5:29 6:12 7:3 8:35 
0 0 0 0 0 0 0 1.02453766387728e-05 0 0 1:1 2:17 3:0 4:7 5:4 6:30 7:34 8:9 
0 0 0.03121280218817993 0 0.0006143144832492467 0 0.01996577360357507 0 0 0 1:6 2:11 3:1 4:12 5:16 6:28 7:9 8:2 
0 0 0 0.0001391834686946016 0 0 0 0 0 0 1:18 2:3 3:5 4:35 5:0 6:13 7:2 8:29 
0 9.479867653362584e-06 0.003632745805152923 0 0.002148643984052704 0 0.01598380808075825 0 0 0 1:12 2:0 3:9 4:29 5:4 6:31 7:8 8:25 
0 7.848995387467001e-05 0 0 0 0 0 0 0 0 1:14 2:5 3:13 4:1 5:4 6:28 7:34 8:6 
0 6.645038830968129e-05 0 4.39975575823214e-05 0 0 0 0 0 0 1:18 2:3 3:13 4:29 5:16 6:21 7:4 8:3 
0 0 0 0 0 0 0 0 0.01347639735459659 0 1:1 2:17 3:13 4:2 5:7 6:14 7:12 8:12 
0 0 0.0066203571054375 0 0 0 0 0 0 0 1:19 2:1 3:19 4:9 5:14 6:34 7:35 8:29 
0 0 0 0 0 0 0 0 0 0.1011587434254238 1:8 2:1 3:1 4:31 5:17 6:13 7:5 8:30 
0.0006790825924235848 0 0 0 0 0 0 0 0 4.889749431871435e-06 1:12 2:9 3:5 4:20 5:12 6:9 7:19 8:19 
0 0 0 0 0 0.004275421632926588 0 0 0 0 1:12 2:10 3:18 4:15 5:15 6:3 7:16 8:9 
0 5.185373622306712e-06 0 0.001765583777184108 0 0 0 0 0 0 1:8 2:2 3:10 4:35 5:9 6:16 7:2 8:9 
0 0 0 2.53986206662425e-05 0 0 0 0 0 0 1:5 2:7 3:23 4:22 5:14 6:20 7:17 8:32 
0 2.904752913810789e-06 0.0005094527052283487 0 0.003363786132189848 0 0.0001599944417452718 0 0 0 1:8 2:3 3:7 4:20 5:6 6:25 7:5 8:1 
0 4.928643329505867e-05 0 0 0 0 0 0 0 0 1:8 2:2 3:26 4:24 5:26 6:34 7:13 8:9 
0.01156772655730479 0 0 0 0 0.007974900597906301 0 0 0.001994957104856222 0 1:15 2:5 3:6 4:7 5:31 6:4 7:2 8:30 
0 0 3.869915991363986e-05 0 0 0 0 0 0 0 1:14 2:5 3:14 4:24 5:1 6:31 7:23 8:32 
0 0 3.278603210562709e-05 0 0 0 0 0 0 0 1:18 2:12 3:2 4:4 5:2 6:25 7:18 8:30 
0 0 0 0 0 0 0 0 0 0.01480278265772334 1:8 2:13 3:18 4:15 5:28 6:14 7:9 8:31 
0 0 0 0 0 0 0 2.818260153379225e-05 0 0 1:6 2:15 3:8 4:8 5:0 6:35 7:32 8:31 
0 0.0006644405366037297 0 0 0 0 0 0 0 0 1:0 2:12 3:1 4:0 5:10 6:28 7:32 8:5 
0 1.378601278177845e-05 0 0 0 0 0 0 0 0 1:18 2:16 3:3 4:21 5:35 6:33 7:10 8:31 
0 0 0 4.285642941965492e-05 0 0 0 0 0 0 1:7 2:11 3:20 4:29 5:12 6:21 7:7 8:33 
0 1.631241770931356e-06 0.0008359398555477917 0 0 0 2.85164356254595e-05 0 0 0 1:6 2:13 3:19 4:14 5:23 6:33 7:3 8:13 
0 0.001555914394332306 0.01015034801103048 0 0.03550985545090053 0 0.000259269858342873 0 0 0 1:6 2:0 3:3 4:16 5:28 6:34 7:1 8:18 
0 0.00258174615527691 0 0 0.002201506909902075 0 0 0 0 0 1:2 2:2 3:4 4:24 5:22 6:33 7:5 8:34 
0 0.0001516396285489524 0 0 0 0 0 0 0 0 1:21 2:13 3:7 4:12 5:32 6:35 7:17 8:13 
0 0.000134854755669208 0 0 0 0 0.001343466636090201 0 0 0 1:21 2:10 3:4 4:0 5:28 6:32 7:4 8:3 
0 0.02176350580068402 0.003287144442034629 0 0.02080545607216928 0 0.01667826608413863 0 0 0 1:15 2:11 3:14 4:1 5:24 6:35 7:21 8:11 
0 0.0008427085491230731 0 0 0 0 0 0 0 0 1:14 2:4 3:26 4:25 5:27 6:35 7:17 8:14 
0 2.169844277664308e-06 1.906621688091098e-06 0 0 0 0 0 0 0 1:19 2:13 3:10 4:0 5:17 6:29 7:10 8:25 
0.0001562498047690323 0 0 0 0 0 0 0 0 0 1:20 2:9 3:19 4:0 5:10 6:9 7:23 8:26 
0 0 0 0 0 0.000199682770490248 0 0 0 0 1:5 2:2 3:16 4:28 5:22 6:4 7:2 8:4 
0 6.374982659010818e-05 1.124842372769919e-05 0 0 0 0 0 0 0 1:1 2:4 3:13 4:2 5:8 6:23 7:30 8:26 
0.04060357517588834 0 0 0 0 0 0 0 0 0 1:26 2:19 3:33 4:34 5:32 6:18 7:26 8:35 
5.264440423256815e-05 0 0 0 0 0 0 0 0 0 1:8 2:14 3:17 4:7 5:27 6:7 7:18 8:11 
0 0 0 0.003733910226866461 0 0 0 0 0 0 1:2 2:28 3:0 4:15 5:24 6:25 7:34 8:1 
0 0 0 0.0001683526264971908 0 0 0 0 0 0.0001051922994403367 1:8 2:3 3:2 4:13 5:18 6:10 7:23 8:32 
0 0 0 0 0 0.002526267903815787 0 0 0 0 1:4 2:5 3:10 4:3 5:35 6:1 7:8 8:26 
0 9.56894866726011e-06 0 0 0 0 0 0 0 0 1:25 2:2 3:18 4:15 5:23 6:33 7:19 8:2 
0 0 0 0.001393662201675795 0 0 0 0 0 0 1:16 2:1 3:5 4:34 5:6 6:16 7:3 8:19 
0 0 0 0 0 0 0.00209526791071627 0 0 0 1:0 2:2 3:12 4:17 5:32 6:34 7:5 8:4 
0 0 0 0.001673926222426473 0 0 0 0 0.01285126704460127 0 1:6 2:7 3:15 4:20 5:15 6:17 7:17 8:35 
0 0.0002838246552294993 0.0001431485725246523 0 0 0 0 0 0 0 1:8 2:5 3:9 4:33 5:2 6:30 7:2 8:15 
0 0.0005973599182536051 0.0001435760788152312 0 0 0 0 0 0 0 1:9 2:3 3:19 4:0 5:3 6:26 7:26 8:28 
0 0.0001174270711914103 0 0 0 0 0 0 0 0 1:20 2:9 3:11 4:32 5:19 6:30 7:9 8:6 
0 0.0005629923714324439 1.580830007283151e-05 0 0 0 0 0 0 0 1:5 2:2 3:6 4:2 5:28 6:29 7:14 8:31 
0 0 0 0 0.002992261691523525 0 0 0 0 0 1:8 2:12 3:0 4:2 5:7 6:23 7:3 8:23 
0 0.0001075473799673412 0 0 0 0 0 0 0 0 1:2 2:8 3:12 4:2 5:31 6:32 7:23 8:7 
0 0.005828669308041378 0 0 0 0 0 0 0 0 1:11 2:10 3:11 4:34 5:9 6:30 7:3 8:6 
0 0 0 0 0 0.003106064297745059 0 0 0 0 1:0 2:6 3:17 4:4 5:20 6:2 7:26 8:5 
0 0 2.002425283633527e-07 5.0688869594552e-05 0 0 0 0 0 0 1:0 2:16 3:17 4:7 5:22 6:27 7:18 8:11 
0 0 0 4.573270125650902e-06 0 0 0 0 0 0 1:20 2:1 3:3 4:20 5:24 6:24 7:17 8:23 
0 0 0 0.01539868696096262 0 0 0 0 0 0 1:9 2:24 3:5 4:26 5:9 6:19 7:8 8:0 
0 0 0 3.634970826539816e-06 0 0 0 0 0 0 1:20 2:16 3:1 4:14 5:2 6:12 7:6 8:21 
0 0 1.221587518475461e-05 0 0 0 0 0 0 0 1:4 2:19 3:11 4:22 5:13 6:30 7:2 8:2 
0 0 0 0 0 0 3.124569819201073e-06 0 0 0 1:0 2:1 3:4 4:3 5:6 6:26 7:14 8:1 
0 0 0.0006835753910031755 0 0 0 3.99464878211295e-06 0 0 0 1:0 2:5 3:8 4:22 5:21 6:33 7:8 8:2 
0 0 0 4.950864398241728e-05 0 0 0 0 0 0 1:26 2:0 3:3 4:10 5:15 6:17 7:15 8:24 
0 0 0 0.000855974070920328 0 0 0 0 0 0 1:19 2:8 3:5 4:12 5:14 6:8 7:0 8:19 
0 0 2.081805837091787e-05 0 0 0 0 0 0 0 1:0 2:9 3:8 4:24 5:26 6:32 7:14 8:4 
0 0.0003890045583841724 0 0 0 0 0 0 0 0 1:19 2:19 3:16 4:7 5:25 6:35 7:15 8:24 
0 0 0 0 0 0.01366974367233424 0 0 0 0 1:12 2:12 3:14 4:9 5:25 6:2 7:5 8:21 
0 0 0 0 0 0.08271535442969356 0 0 0 0 1:9 2:2 3:14 4:28 5:15 6:2 7:6 8:3 
0 3.451327572902856e-06 0 0 0 0 0 0 0 0 1:17 2:8 3:10 4:2 5:7 6:14 7:4 8:29 
0 0 0 0 0 0 0 0 0 0.0090906976737172 1:6 2:16 3:17 4:14 5:29 6:17 7:17 8:33 
0 0 0 0 0 0.001292698913573842 0 0 0 0 1:1 2:14 3:5 4:0 5:22 6:2 7:23 8:0 
0 1.466583292939798e-07 0 0 0 0 0 0 0 0 1:1 2:2 3:19 4:3 5:34 6:21 7:19 8:9 
0 0 0 0 0.0002714520696178814 0 0 0 0 0 1:0 2:23 3:4 4:1 5:16 6:30 7:12 8:30 
0 0 0 0 0 0.005568462141395681 0 0 0 0 1:7 2:9 3:14 4:1 5:25 6:3 7:26 8:6 
0 0 0 0 0 0 0 0 0.003298672748062095 0 1:21 2:14 3:2 4:0 5:25 6:15 7:16 8:0 
0 5.499126717885524e-06 0 0 0 0 0 0 0 0 1:5 2:0 3:21 4:18 5:3 6:22 7:2 8:13 
0 0 0.001780547460783604 0.002779430975744664 0 0 0 0 0 0 1:0 2:16 3:4 4:30 5:4 6:19 7:1 8:33 
0 0 0 0 0 0.001053335165884281 0 0 0 0 1:17 2:7 3:18 4:5 5:2 6:2 7:18 8:19 
0 0 0 0 0 0.0164021357875409 0 0 0 0 1:19 2:13 3:3 4:5 5:24 6:2 7:9 8:23 
0.006949257226098819 0 0 0 0 0 0 0 0 0 1:10 2:7 3:20 4:12 5:2 6:5 7:18 8:7 
0.0005118873286264745 0 0 0 0 0 0 0 0 0 1:7 2:9 3:15 4:28 5:13 6:4 7:0 8:31 
0 0.007511458958153845 0 0 0 0 7.105294292507592e-07 0 0 0 1:20 2:12 3:9 4:4 5:3 6:34 7:15 8:0 
0 7.088276830288171e-06 0 0 0 0 0 0 0 0 1:17 2:14 3:6 4:28 5:13 6:29 7:2 8:7 
0 0 0 0 0 0 0 0 0.005762316274782875 0 1:4 2:4 3:12 4:2 5:8 6:12 7:32 8:26 
0 0.0001096821750668952 0 0 0 0 0 0 0 0 1:20 2:1 3:26 4:4 5:17 6:35 7:22 8:18 
0 0.0008474261260675215 0 0 0 0 0.003757718043809178 0 0 0 1:10 2:8 3:1 4:4 5:16 6:25 7:30 8:33 
0 0.0002293186718269979 0 0 0 0 0 0 0 0 1:24 2:2 3:11 4:3 5:8 6:26 7:21 8:27 
0 0 0 0 0 0 0 0 1.063098907126975e-05 0 1:2 2:4 3:14 4:30 5:21 6:15 7:0 8:12 
0 0.0004308423144144932 0.02622371319178403 0 6.103617833447444e-06 0 0 0.0001438088502517744 0 0 1:11 2:5 3:0 4:10 5:3 6:30 7:0 8:9 
0 0 0 0 0 0 0.0002912647138272535 3.366051258867244e-05 0 0 1:3 2:18 3:10 4:5 5:10 6:34 7:34 8:12 
0 0 0.002965035429051046 0 0 0 0 0 0 0 1:1 2:14 3:28 4:2 5:19 6:34 7:17 8:5 
0.001759955183448472 0 0 0 0 0 0 0 0 0 1:11 2:18 3:6 4:1 5:9 6:7 7:0 8:23 
0 0 0 0 0 0 0.0009381365702198038 0 0 0 1:16 2:14 3:15 4:26 5:9 6:35 7:3 8:8 
5.240605141494596e-06 0 0 0 0 0 0 0 0 0 1:17 2:1 3:21 4:4 5:13 6:8 7:13 8:12 
0 0 0.01596799384398816 0 0.0105900213620579 0 0.0001891010162208203 0 0 0 1:18 2:0 3:15 4:24 5:9 6:33 7:6 8:10 
0 5.592884133063827e-05 0 7.128639166683337e-05 0 0 0 0 0.0542238241653827 0.0133596066343146 1:19 2:6 3:2 4:3 5:1 6:11 7:18 8:13 
0 2.567101556259769e-05 0 0 0 0 0 0 0 0 1:13 2:4 3:8 4:32 5:15 6:17 7:2 8:8 
0 0 6.285090932946949e-07 0 0 0 0 0 0 0 1:13 2:0 3:9 4:23 5:3 6:27 7:27 8:22 
0 0 0 0 0 0 0 0 0 0.0003110900426985986 1:0 2:1 3:16 4:8 5:22 6:14 7:31 8:1 
0 2.596215284845124e-06 0 0 0 0 0 0 0 0 1:16 2:10 3:7 4:20 5:4 6:26 7:12 8:24 
0 1.073914767654546e-05 0 0 0.07015703769668639 0 0.003996599799667358 0.0004595947665873003 0 0 1:2 2:11 3:5 4:5 5:1 6:30 7:19 8:17 
0 0.002164826583638275 0.01276596903011443 0 0 0 0 0 0 0 1:15 2:7 3:7 4:35 5:26 6:34 7:6 8:31 
0 2.992753766828539e-05 0.0005071377081921373 0 0 0 0 0 0 0 1:2 2:13 3:18 4:0 5:21 6:28 7:28 8:1 
0 0 0 6.803201333953435e-05 0 0 0 0 0 0 1:16 2:1 3:10 4:12 5:5 6:13 7:33 8:26 
0 0.000392264459269237 3.448561652695029e-05 0 0 0 2.878912980507851e-06 0 0 0 1:10 2:7 3:15 4:27 5:10 6:33 7:13 8:13 
0 0 0 0 0 0.00619835035052459 0 0 0 0 1:13 2:9 3:10 4:26 5:23 6:2 7:2 8:20 
0 0 0 0 0 0.000867816379647208 0 0 0 0 1:6 2:13 3:22 4:29 5:6 6:3 7:23 8:28 
1.946758608603183e-05 0 0 0 0 0 0 0 0 0 1:4 2:24 3:6 4:3 5:17 6:5 7:0 8:6 
0 1.468367689539059e-05 0 0 0 0 0 0 0 0 1:21 2:10 3:4 4:9 5:21 6:34 7:27 8:2 
0 0 0 0 0 0 0 0 0.03375959085122989 0.0003204400707810259 1:16 2:6 3:8 4:21 5:23 6:13 7:3 8:27 
0 0.002651645637124712 0 0 0 0 0 0 0 0 1:1 2:3 3:31 4:28 5:16 6:35 7:10 8:10 
0 0 0 6.239798814406206e-05 0 0 0 0 0 0 1:14 2:5 3:15 4:13 5:11 6:18 7:32 8:13 
0 0.0007982379417627538 0.002969542996286082 0 0.005703806672401001 0 7.266668434191214e-05 0 0 0 1:11 2:4 3:17 4:17 5:12 6:32 7:16 8:35 
0 0 0 0 0 0 1.391217396919346e-06 0 0 0 1:6 2:21 3:13 4:30 5:5 6:32 7:15 8:30 
0 0 0.005920849790202248 0 0.07944012269340245 0 0.03009762106481424 3.654380182130376e-05 0 0 1:4 2:16 3:14 4:3 5:20 6:35 7:14 8:32 
0 0.02283685437643523 0 0.0174979692276545 0 0 0 0 0 0 1:26 2:5 3:14 4:16 5:34 6:35 7:28 8:34 
0 3.358303810471788e-05 0.00816182886180135 0.006100051070768588 0 0 0 0 0 0 1:2 2:12 3:7 4:16 5:13 6:25 7:24 8:35 
0 0.0007202161616482926 0 0 0.0007155215637462745 0 0 0 0 0 1:9 2:6 3:17 4:2 5:14 6:32 7:9 8:3 
0 0.0006820183605405109 0.0108923889477546 0 0 0 0.0170935259995753 0 0 0 1:14 2:11 3:18 4:2 5:15 6:35 7:32 8:26 
0.02592603163082483 0 0 3.931412319912135e-05 0 0 0 0 0 0 1:12 2:4 3:0 4:7 5:33 6:9 7:6 8:5 
0 0 0 0 0 0 0 0 0 0.01662618225801383 1:14 2:4 3:19 4:1 5:22 6:14 7:11 8:7 
0 0.00629294039550538 0.0002308678654698926 0.0008296271934104737 0 0 0 0 0.1136413181913123 0 1:4 2:4 3:11 4:2 5:1 6:12 7:20 8:2 
0 0 0 0 0 0 0 0 0 0.0002989350345881305 1:3 2:18 3:2 4:15 5:7 6:9 7:20 8:11 
0.01074918463648473 0 0 0 0 0 0 0 0 0 1:9 2:10 3:16 4:27 5:8 6:5 7:2 8:35 
0 3.075687664846949e-05 0 0 0 0 0 0 0 0 1:18 2:19 3:10 4:11 5:16 6:34 7:17 8:1 
0 0.0002255002871030273 0 0 0 0 0 0 0 0 1:12 2:7 3:17 4:32 5:4 6:29 7:8 8:26 
0 0.005495819356165181 0.0005175230783928062 0 0 0 0.01345369956905022 0 0 0 1:17 2:6 3:18 4:2 5:24 6:35 7:18 8:29 
0.004095604727739595 0 0 0 0 0 0 0 0 0 1:13 2:4 3:14 4:28 5:6 6:9 7:12 8:26 
0 0 0 0 0 0 0 0 0.003727831346571445 0 1:3 2:0 3:23 4:10 5:8 6:11 7:24 8:19 
0 3.492617870656068e-05 0.02158471350011278 0 0.0006706424847664773 0 0.003374803016634625 0 0 0 1:12 2:0 3:15 4:29 5:19 6:32 7:0 8:17 
0 0 5.034869289488447e-06 0.0001061215266987673 0 0 0 0 0 0 1:15 2:1 3:3 4:7 5:21 6:16 7:24 8:10 
0 0 0 0 0 0 0 0 0.01216408201204257 0 1:15 2:4 3:11 4:7 5:33 6:0 7:1 8:24 
0 0 0 0 0.008401704899491599 0 0 0 0 0 1:5 2:21 3:5 4:15 5:28 6:21 7:0 8:34 
0 0 0 0 0 0 0 0 0.009391664998148213 0 1:14 2:13 3:9 4:10 5:11 6:17 7:14 8:0 
0 9.988861825239112e-07 0 0 0 0 0 0 0 0 1:5 2:9 3:9 4:18 5:32 6:28 7:4 8:1 
0 0 0 5.533732730933862e-07 0 0 0 0 0 0 1:3 2:19 3:11 4:24 5:3 6:19 7:12 8:10 
0 0.004362245853562376 0.01186615231947567 0 0 0 0 0 0 0 1:19 2:1 3:12 4:28 5:22 6:34 7:13 8:33 
0 3.55465374159391e-06 0 0 0 0 0 0 0 0 1:18 2:17 3:2 4:22 5:31 6:31 7:5 8:6 
0 0.001009438547116965 0 0 0 0 0.0001367274725810582 0 0 0 1:17 2:18 3:6 4:20 5:17 6:35 7:14 8:16 
0 0 0 0 0 0 0 0 0 0.0155097927382423 1:2 2:4 3:24 4:14 5:27 6:14 7:17 8:30 
0 0 0 0 0 0.008774782275694636 0 0 0 0 1:17 2:1 3:12 4:7 5:13 6:3 7:16 8:29 
0 5.414461813056135e-05 0 0 0 0 0 0 0 0 1:5 2:5 3:20 4:3 5:1 6:18 7:3 8:21 
0 2.326989860525121e-06 0 0 0 0 0 0 0 0 1:5 2:7 3:18 4:32 5:9 6:22 7:8 8:7 
0 0 0 0 0 0.005236632918010423 0 0 0 0 1:3 2:5 3:9 4:15 5:31 6:2 7:3 8:34 
0 0.0004866992735998703 0 0 0 0 0 0 0 0 1:11 2:30 3:14 4:4 5:19 6:33 7:0 8:32 
0 0 1.215587862586623e-06 0.0004990050522280409 0 0 0 0 0 0 1:9 2:10 3:17 4:0 5:16 6:22 7:21 8:28 
0 0 6.26918225110722e-06 0 0 0 0 0 0.00671479734937816 0 1:8 2:12 3:14 4:1 5:4 6:20 7:16 8:20 
0 0 0 2.513661225827015e-05 0 0 0 0 0.05357851712757915 0.01409041215036552 1:4 2:12 3:0 4:24 5:20 6:13 7:0 8:22 
0 0 2.363257210416466e-06 0 0 0 0 0 0 0 1:6 2:14 3:20 4:0 5:4 6:23 7:29 8:4 
0 0 0 0.002363785406391491 0 0 0 0 0 0 1:23 2:0 3:9 4:27 5:32 6:32 7:10 8:22 
0 0.0001355569812988938 0 0 0 0 0 0 0 0 1:8 2:23 3:11 4:0 5:27 6:28 7:14 8:0 
0 8.573667239088489e-05 0 4.845073703065126e-07 7.343158757288289e-05 0 6.001407655218425e-07 0 0 0 1:5 2:0 3:16 4:22 5:21 6:29 7:3 8:20 
0 0.0008966249078800221 1.409936471897207e-05 0 0 0 3.619054630548439e-05 0 0 0 1:20 2:0 3:7 4:0 5:21 6:30 7:18 8:9 
0.004608441924390792 0 0 0 0 0 0 0 0 0 1:14 2:2 3:16 4:28 5:20 6:8 7:8 8:19 
0 0.0003583230297425965 0 0 0 0 0 0 0 0 1:6 2:18 3:7 4:22 5:32 6:33 7:11 8:0 
0 6.436827570739587e-06 0 0 0 0 0 0 0 0 1:11 2:7 3:16 4:12 5:21 6:24 7:10 8:3 
0 9.675102411783598e-07 0 2.770904416188471e-06 0 0 0 0 0 0 1:9 2:0 3:6 4:16 5:28 6:22 7:0 8:20 
0 0.001132612668855957 0.0002271088767778257 0 0 0 0 0 0 0 1:21 2:12 3:9 4:20 5:13 6:34 7:16 8:28 
0 0 0.0004495760428602882 0 0 0 0 0 0 0 1:1 2:0 3:17 4:28 5:9 6:17 7:11 8:3 
3.651006044172508e-07 0 0 0 0 0 0 0 0 0 1:7 2:13 3:22 4:22 5:15 6:9 7:24 8:31 
0 0.0004059849414506679 0 0 0 0 0 0 0 0 1:0 2:29 3:1 4:3 5:34 6:7 7:4 8:4 
0 9.694123389380243e-06 0 0 0 0 0 0 0 0 1:10 2:13 3:18 4:14 5:26 6:33 7:27 8:17 
0 0 0 0 0 0 0 0 2.038996960798135e-05 0 1:4 2:4 3:4 4:22 5:10 6:13 7:22 8:14 
0 0 0 0 0 0.002950868778110289 0 0 0 0 1:22 2:18 3:4 4:13 5:22 6:2 7:26 8:8 
0 1.82019122768084e-06 5.584168349929619e-06 0.0002160020256463511 0 0 0 0 0.2238302013906364 0 1:3 2:6 3:2 4:2 5:16 6:12 7:16 8:2 
0 0 0 3.381126573599077e-06 0 0 0 0 0 0 1:13 2:19 3:0 4:6 5:15 6:16 7:5 8:28 
2.835611277930076e-06 0 0 0 0 0 0 0 0 0 1:3 2:14 3:12 4:10 5:21 6:5 7:21 8:12 
0 0.0008056991334889145 0 0.01549632024347385 0 0 0 0 0 0 1:5 2:0 3:2 4:10 5:30 6:34 7:12 8:16 
0 0.0004722680878737056 0 0 0 0 0.0002432168636696312 0 0 0 1:19 2:15 3:8 4:29 5:10 6:35 7:9 8:16 
0 0.002499646119692736 0.01536555744344004 8.060211684224543e-05 0 0 0.002545092598921498 0 0 0 1:1 2:11 3:0 4:8 5:11 6:21 7:5 8:4 
0 0.0001627799056481421 0 0 0 0 0 0 0 0 1:14 2:0 3:18 4:26 5:20 6:26 7:13 8:0 
0 0 8.370180167281711e-05 0 0 0 0 0 0 0 1:14 2:0 3:4 4:10 5:14 6:32 7:31 8:27 
0 8.983345230068164e-06 0 0.0001007134696461449 0 0 0 0 0 0 1:19 2:5 3:14 4:25 5:21 6:21 7:8 8:1 
0.0002504855201471424 0 0 0 0 0 0 0 0.02384042249588592 0.02820015377002456 1:8 2:0 3:14 4:8 5:19 6:8 7:23 8:25 
0 0.001028317966472844 0 0 0 0 0 0 0 0 1:16 2:17 3:1 4:34 5:6 6:6 7:5 8:4 
0 2.184335085281388e-05 0 0 0.004940103949287342 0 0 0 0 0 1:0 2:18 3:2 4:0 5:28 6:30 7:20 8:30 
0 0 0 2.312370911025342e-07 0 0 0 0 0.003881784786428309 0 1:12 2:14 3:0 4:13 5:29 6:18 7:15 8:26 
0.05759835342054697 0 0 0 0 0 0 0 0.008788225286339038 0 1:2 2:7 3:0 4:28 5:11 6:9 7:1 8:21 
0.0002539126139977296 0 0 0 0 0 0 0 0 0 1:2 2:12 3:16 4:1 5:22 6:4 7:19 8:16 
0.002255278884172971 0 0 0 0 0 0 0 0 0 1:2 2:7 3:22 4:12 5:27 6:9 7:14 8:35 
0 7.768315668408764e-05 0.0002157247553336698 0 0 0 0.006866971107245455 0 0 0 1:0 2:8 3:22 4:14 5:27 6:35 7:2 8:23 
0 0 0 0 0 0.008533786887195569 0 0 0 0 1:11 2:19 3:7 4:24 5:25 6:3 7:15 8:35 
0 0 0 0.0007120664332212287 0 0 0 0 0 0 1:11 2:11 3:14 4:7 5:10 6:13 7:30 8:0 
0 2.730612326384057e-05 0 0 0 0 0 0 0 0 1:15 2:16 3:13 4:13 5:16 6:32 7:6 8:29 
0 3.395333486917117e-07 0 0 0 0 0 0 0 0 1:11 2:10 3:18 4:13 5:3 6:27 7:24 8:14 
0 0 0 0 0 0 0 0 0.009972737395472435 0 1:15 2:7 3:16 4:23 5:1 6:21 7:17 8:29 
0 0 0 4.605703271468609e-07 0 0 0 0 0 0 1:19 2:7 3:13 4:4 5:21 6:19 7:19 8:14 
0.005209903914623649 0 0 0 0 0 0 0 0 0 1:29 2:24 3:31 4:30 5:34 6:18 7:29 8:29 
0.03643030092525769 0.01286716908355499 0.0296096199784722 0.01113020378473917 0.003287058252162584 0 0.004589649545658109 3.09003056422384e-06 0 0.0315995937495451 1:4 2:2 3:4 4:3 5:30 6:4 7:2 8:33 
0 0 0 0.008964970684326655 0 0 0 0 0 0 1:1 2:26 3:13 4:15 5:9 6:22 7:13 8:0 
0 0 0 0 0 0 3.483706228143697e-07 0 0 0 1:9 2:16 3:12 4:30 5:1 6:30 7:7 8:2 
0 0 0 0 0 0 0 0 0.0002651498859626299 0 1:7 2:16 3:13 4:3 5:28 6:20 7:6 8:22 
0 3.725440719322624e-07 0 0 0 0 0 0 0 0 1:3 2:20 3:12 4:24 5:8 6:27 7:12 8:30 
0 0 0 0 0 0 0 0 0.01238508051766412 0.004878541378258033 1:6 2:5 3:2 4:19 5:25 6:13 7:5 8:14 
0 0 0 2.555301816140192e-06 0 0 0 0 0.04523233561972616 0 1:10 2:16 3:8 4:3 5:4 6:15 7:24 8:19 
0 0 4.043072756795117e-06 0 0 0 2.949282386709391e-07 0 0 0 1:9 2:2 3:19 4:9 5:19 6:31 7:8 8:32 
0 0.0005163643162672294 0 0 0 0 0 0 0 0 1:0 2:11 3:29 4:13 5:14 6:33 7:32 8:22 
0 0.00165698319563039 0.02127682273920631 0 0 0 0.01030091028489929 0 0 0 1:8 2:4 3:1 4:20 5:28 6:35 7:6 8:5 
0 0 0 0 0 0.001447876169719881 0 0 0 0 1:20 2:11 3:4 4:10 5:18 6:1 7:24 8:4 
0 0 0.002029638688825132 0.001297457159273228 0 0 0 0 0 0 1:0 2:8 3:8 4:18 5:15 6:19 7:5 8:0 
0 0 0 1.014186456260366e-05 0 0 0 0 0.03170612980461526 0 1:1 2:6 3:7 4:19 5:24 6:13 7:0 8:20 
0 0 0 0.007116424487326136 0 0 0 0 0 0 1:26 2:0 3:15 4:35 5:19 6:29 7:0 8:21 
0 0 0 0 0.00658389295960093 0 0.01045788295094069 0 0 0 1:20 2:1 3:8 4:28 5:4 6:34 7:1 8:6 
0 0 0.002974617951586045 0 0 0 0 0 0 0 1:14 2:11 3:5 4:2 5:0 6:32 7:30 8:28 
0 0.001127479156504269 0.001475845895238093 0 0 0 0.0002061575597942095 0 0 0 1:8 2:6 3:8 4:1 5:6 6:20 7:5 8:21 
0 8.123169808442248e-08 0 0 0 0 0 0 0 0 1:5 2:4 3:21 4:17 5:32 6:27 7:11 8:33 
0.01605596821234385 0 0 0 0 0 0 0 0 0 1:2 2:11 3:17 4:26 5:9 6:7 7:19 8:28 
0 0.0001158209394539738 0 0 0 0 0 0 0 0 1:20 2:0 3:6 4:3 5:5 6:22 7:25 8:8 
0.00058719533819926 0 0 0 0 0 0 0 0 0 1:13 2:16 3:18 4:6 5:16 6:8 7:25 8:8 
0 0 0 0 0 0 1.36623211073398e-06 0 0 0 1:7 2:6 3:8 4:30 5:2 6:32 7:7 8:13 
0 0 0 0.0005943968792421485 0 0 0 0 0 0 1:20 2:0 3:7 4:22 5:30 6:25 7:7 8:29 
0 0 0.008666825949704211 0 0 0 0 0 0 0 1:13 2:6 3:21 4:19 5:28 6:35 7:15 8:21 
0 0.0003559125954420574 0.0005973400315027936 0 0.05942787344973788 0 0.03844913364434703 3.245357210165725e-05 0 0 1:17 2:3 3:0 4:14 5:7 6:35 7:26 8:24 
0 0 0 9.599792297862616e-07 0 0 0 0 0 0 1:13 2:9 3:13 4:18 5:13 6:15 7:8 8:9 
0 0 0.0001503453353263968 0 0 0 0 0 0 0 1:10 2:27 3:3 4:11 5:14 6:35 7:21 8:8 
0 0 0 1.429842290851076e-05 0 0 0 0 0 0 1:19 2:2 3:15 4:17 5:16 6:20 7:23 8:7 
0.04369221675244775 0.003845964409627841 0 0 0 0 0 0 0 0 1:1 2:2 3:23 4:0 5:32 6:9 7:0 8:14 
0 0 3.086755523769504e-06 0 0 0 0 0 0 0 1:11 2:1 3:18 4:9 5:5 6:24 7:11 8:12 
1.298517218921917e-06 0 0 0 0 0 0 0 0 0 1:23 2:2 3:12 4:27 5:16 6:8 7:10 8:19 
0.004746946210357734 0 0 0 0 0 0 0 0 0 1:2 2:34 3:32 4:34 5:28 6:16 7:26 8:34 
0.0002481264153540924 0 0 0 0 0 0 0 0 0 1:4 2:8 3:24 4:12 5:22 6:7 7:20 8:14 
0 7.463975219194603e-06 0 0 0 0 0 0 0 0 1:10 2:7 3:16 4:23 5:1 6:26 7:16 8:21 
0 0.0002557838009343783 2.932896030693043e-05 0 0 0 0 0 0 0 1:19 2:13 3:9 4:6 5:14 6:32 7:18 8:22 
0 0 0 0 0 0 0 0 0 1.476066175830494e-07 1:10 2:19 3:24 4:26 5:24 6:19 7:21 8:20 
0 7.723237900129972e-07 4.584664105638163e-07 0 0 0 0 0 0 0 1:22 2:11 3:1 4:9 5:10 6:24 7:13 8:28 
0 0.1771787322410261 4.342551102103137e-05 0.02942769469532621 0 0 5.700773782483713e-05 0 0.01280686762083634 0.01078231690299388 1:6 2:10 3:3 4:0 5:6 6:9 7:0 8:21 
8.574065976382683e-05 0 0 0 0 0 0 0 0 0 1:14 2:4 3:19 4:10 5:11 6:8 7:10 8:4 
0 8.41495852534277e-06 0.008074239968633727 0.2351582145392626 0 0 0 0 0.3884823598272516 0.03688141766906974 1:0 2:1 3:5 4:15 5:10 6:10 7:4 8:4 
0 9.993036697811914e-07 0 0 0 0 0 0 0 0 1:16 2:2 3:9 4:22 5:30 6:28 7:13 8:1 
9.286884385201201e-05 0 0 0 0 0 0 0 0 0 1:12 2:3 3:4 4:24 5:24 6:9 7:8 8:14 
0 0 0 0.0007775607913475096 0 0 0 0 0 0 1:5 2:7 3:2 4:8 5:33 6:18 7:8 8:4 
0 0.0002102639442716656 0 0 0 0 0 0 0 0 1:22 2:20 3:10 4:32 5:21 6:33 7:7 8:11 
0 9.094879883872122e-06 0.0039266295418428 0 0 0 0.01294204259821369 0 0 0 1:6 2:11 3:20 4:7 5:22 6:35 7:17 8:10 
0 0 0 0 0 0 0 0 0.001012550623586408 0 1:10 2:4 3:5 4:21 5:16 6:14 7:21 8:10 
0 0.004657599431958901 0 0 0 0 0 0 0 0 1:34 2:4 3:4 4:7 5:31 6:35 7:23 8:1 
0 0 0 0.02928067575191484 0 0 0 0 0 0 1:7 2:34 3:17 4:32 5:32 6:35 7:30 8:35 
0 0.0039085189205494 0.01230015113206201 0 0.001188728217245 0 0.0004816961144573288 0 0 0 1:6 2:8 3:17 4:11 5:21 6:35 7:21 8:30 
0 0 9.111572528188693e-05 0 0 0 0 0 0 0 1:11 2:22 3:3 4:0 5:3 6:27 7:12 8:19 
0 0.001202440483947715 0.0001241882408210445 0 0 0 0.0004964101851109374 0 0 0 1:5 2:18 3:13 4:3 5:14 6:28 7:28 8:0 
0 0.003116268928000783 0 0 0 0 0 0 0 0 1:30 2:2 3:18 4:8 5:27 6:35 7:34 8:23 
0 0 0 0 0 0 0 0 0 1.877840641846705e-08 1:17 2:17 3:12 4:16 5:13 6:13 7:24 8:29 
0 0 0 1.15479501696895e-05 0 0 0 0 0 0 1:7 2:2 3:20 4:17 5:12 6:22 7:12 8:17 
0 0 3.664263684233518e-05 0 0 0 0 0 0 0 1:14 2:22 3:4 4:16 5:12 6:34 7:8 8:23 
0 0 0 0 0 0 0 0 0.001561733036072012 0 1:10 2:0 3:24 4:9 5:21 6:19 7:4 8:5 
0 0 0 0.004458762844708151 0.003557831334237391 0 0.01760784868092194 0 0 0 1:1 2:1 3:8 4:0 5:34 6:35 7:11 8:5 
0 0.0003666463610002732 1.756218431384232e-06 0 0 0 0 0 0 0 1:12 2:14 3:3 4:28 5:11 6:21 7:4 8:25 
0 2.00950533653699e-06 0 0 0 0 0 0 0 0 1:7 2:10 3:10 4:14 5:32 6:28 7:11 8:13 
0 0.0003188072309198366 0 0 0 0 0 0 0 0 1:22 2:8 3:20 4:35 5:15 6:35 7:12 8:15 
0 0 0 0 0 0 0 0 0.04563165642308106 0 1:10 2:12 3:8 4:0 5:8 6:15 7:32 8:34 
0 0 0 0 0 0 0 0 9.12938141992383e-05 0 1:2 2:9 3:3 4:22 5:21 6:17 7:20 8:16 
0 1.670102035637922e-05 0 0 0 0 0 0 0 0 1:7 2:6 3:21 4:8 5:2 6:25 7:15 8:31 
0.002950614625451192 0 0 0 0 0 0 0 0 0 1:8 2:3 3:4 4:21 5:20 6:9 7:16 8:31 
0 0 0 0 0 0.1143828721757236 0 0 0 0 1:15 2:0 3:15 4:13 5:0 6:1 7:1 8:26 
0.01786788188613312 0 0 0 0 0 0 0 0 0 1:17 2:8 3:7 4:20 5:17 6:5 7:11 8:2 
0 4.275926930563421e-07 4.8189892942473e-07 0 3.02378386622537e-06 0 0.006817348194441085 0 0 0 1:4 2:7 3:20 4:11 5:10 6:33 7:8 8:17 
0 4.065392566311503e-07 0.001266697577430503 0 0.003130699221730692 0 0 0 0 0 1:4 2:20 3:11 4:11 5:18 6:30 7:4 8:33 
0 4.087264959756179e-06 0 0 0 0 0 0 0 0 1:6 2:10 3:14 4:2 5:30 6:30 7:23 8:1 
3.46039090440411e-05 0 0 0 0 0 0 0 0 0 1:14 2:6 3:3 4:5 5:25 6:7 7:23 8:18 
0.005413746656857791 0 0 0 0 0 0 0 0 0 1:19 2:2 3:11 4:0 5:8 6:6 7:17 8:28 
0 1.473564227973917e-07 0 0 0 0 0 0 0 0 1:14 2:2 3:0 4:22 5:27 6:33 7:17 8:21 
0.001610716751136663 0 0 0 0 0 0 0 0 0 1:13 2:6 3:5 4:9 5:31 6:5 7:7 8:2 
0 0.002825640473550791 0 0 0.02540288641107416 0 0 1.911258771338065e-05 0 0 1:2 2:2 3:0 4:1 5:9 6:23 7:4 8:33 
0 7.590805720132898e-05 0 0 0.009829061922219761 0 0 0 0 0 1:4 2:1 3:11 4:6 5:29 6:35 7:13 8:27 
0 0 0 0 0.003096790244377428 0 0 0 0 0 1:4 2:26 3:13 4:23 5:22 6:35 7:6 8:32 
0 0.004123906476711524 9.114303975566005e-05 0 0 0 0 0.0001182794619703406 0 0 1:2 2:4 3:1 4:5 5:10 6:32 7:1 8:11 
0 6.976209121161413e-07 0 0 0 0 0 0 0 0 1:7 2:15 3:0 4:15 5:30 6:25 7:0 8:17 
0 4.918488775291952e-05 0 0 0 0 0 0 0 0 1:25 2:10 3:7 4:32 5:19 6:30 7:23 8:23 
0 0 0 6.872609231277842e-06 0 0 0 0 0 1.444174605936094e-06 1:19 2:1 3:9 4:7 5:12 6:11 7:22 8:18 
0 6.582266995873111e-06 2.441681775707196e-05 0 0 0 0 0 0 0 1:17 2:7 3:2 4:29 5:19 6:29 7:1 8:7 
0 0 0 0 0 0.03848365050633281 0 0 0 0 1:12 2:7 3:15 4:23 5:5 6:2 7:5 8:17 
0 0 0 0 0 0.002176769011335251 0 0 0 0 1:12 2:16 3:12 4:21 5:22 6:3 7:9 8:22 
0 0 0 0 0 0 0 0 0.0001900781762270157 0 1:6 2:3 3:18 4:24 5:26 6:16 7:1 8:11 
0 0 0.002465471799824823 0 0.0002115973759733115 0 0 0 0 0 1:8 2:0 3:21 4:16 5:14 6:29 7:5 8:10 
0 0 0 0 0 0 1.084078107909392e-06 0 0 0 1:8 2:18 3:4 4:12 5:9 6:28 7:20 8:2 
0 0 0 0.0001577227044973441 0 0 0 0 0 0 1:0 2:12 3:9 4:31 5:10 6:17 7:10 8:28 
0 0 0 0 0 0 0 0 0 0.003562928482498505 1:0 2:11 3:29 4:26 5:20 6:19 7:26 8:14 
0 0 0 0 0 0.007428820399212411 0 0 0 0 1:1 2:3 3:2 4:16 5:19 6:1 7:19 8:29 
0 0.0003933475586948598 0 0 0 0 0 0 0.02084009182629127 0 1:1 2:8 3:13 4:2 5:2 6:17 7:1 8:27 
0 0 0.003679534352324486 0 0.01180368713807149 0 0.0006060322338803457 0 0 0 1:14 2:9 3:0 4:8 5:32 6:35 7:9 8:12 
0 0 0 0 0 0 0 0 0.001630227861163154 0 1:10 2:18 3:22 4:4 5:17 6:21 7:26 8:8 
0 0 0 0 0 0 4.922366013999405e-05 0 0 0 1:20 2:5 3:3 4:0 5:4 6:24 7:4 8:8 
0 0 0 0 0 0 0 0 0.0002395541868690648 0 1:6 2:15 3:12 4:18 5:24 6:14 7:9 8:0 
0 0 3.891233916848861e-06 0 0 0 0 0 0 0 1:10 2:11 3:3 4:15 5:11 6:28 7:27 8:33 
0 0 0 0 0 0 1.207268432287255e-05 0 0 0 1:6 2:16 3:3 4:10 5:33 6:30 7:0 8:11 
0 1.523499396419132e-05 7.778587594652358e-05 0 0 0 0 0 0 0 1:19 2:4 3:6 4:1 5:25 6:21 7:21 8:0 
0 0 0 0.0008164886494741979 0 0 0 0 0 0 1:21 2:2 3:16 4:11 5:35 6:33 7:27 8:32 
0 0 0 0.0002382196001006713 0 0 0 0 0.005052334803346343 0 1:0 2:6 3:18 4:4 5:1 6:13 7:7 8:9 
0 0 0 0 0 0 4.088587825450379e-05 0 0 0 1:7 2:0 3:22 4:5 5:2 6:33 7:9 8:27 
0.002115980918331438 0 0 0 0 0 0 0 0 0 1:3 2:22 3:17 4:0 5:19 6:10 7:1 8:27 
0 5.775524592855654e-05 0 0 0 0 0 0 0 0 1:0 2:8 3:7 4:11 5:34 6:18 7:8 8:23 
0 0.0001964753884958734 0 0 0 0 0 0 0 0 1:4 2:12 3:25 4:3 5:27 6:34 7:20 8:11 
0 0 0 0 0 0 3.49961961087419e-05 0 0 0 1:15 2:1 3:10 4:35 5:6 6:33 7:10 8:8 
0 0 0 0 0 0 0.0006412789033370573 0 0 0 1:5 2:18 3:13 4:3 5:0 6:35 7:19 8:26 
0 0 0 0 0 0 0.006174601135392031 0 0 0 1:23 2:6 3:10 4:11 5:3 6:35 7:2 8:20 
0 0.0002504888226148647 0.002077227312790066 0 0 0 0 0 0 0 1:6 2:10 3:15 4:5 5:8 6:31 7:31 8:35 
0 0 0 0.0003237715819930166 0 0 0 0 0 0 1:11 2:17 3:13 4:24 5:29 6:31 7:16 8:28 
0 0 0 0.003477331304558869 0 0 0 0 0 0 1:6 2:1 3:0 4:1 5:28 6:13 7:17 8:1 
0 0.0005431544499865937 0 0.02436540148589165 0 0 0 0 0.02498036929718551 0 1:8 2:1 3:4 4:1 5:33 6:19 7:0 8:7 
0 0 0 3.397754526242563e-05 0 0 0 0 0.01935656311427589 0 1:11 2:11 3:13 4:15 5:6 6:15 7:10 8:12 
0 0 0.004072834620945147 0 0 0 0.004468935293876341 0 0 0 1:6 2:19 3:6 4:25 5:2 6:27 7:13 8:35 
0 0.005242812815967409 0 0 0.03249214816640181 0 0.001148005357543643 0 0 0 1:13 2:13 3:9 4:15 5:20 6:32 7:15 8:0 
0 0 0 0 0.0005255011005708361 0 1.528220770896905e-05 0 0 0 1:6 2:3 3:13 4:7 5:2 6:29 7:0 8:28 
0 0.0004103729391497777 0 0 0 0 0 0 0 0 1:1 2:16 3:29 4:34 5:35 6:30 7:26 8:4 
0 0 0 0.003440430253508347 0 0 0 0 0 0 1:0 2:5 3:14 4:30 5:5 6:16 7:5 8:10 
0 0.0002029543634563928 6.29658898282651e-05 0.0007643053674470573 0 0 0 0 0 0 1:5 2:12 3:3 4:4 5:28 6:23 7:11 8:3 
0 0 0 2.964710102480763e-05 0 0 0 0 0 0 1:19 2:9 3:6 4:7 5:31 6:16 7:2 8:5 
0.0001870242978753274 0 0 0 0 0 0 0 0 0 1:20 2:12 3:14 4:3 5:25 6:10 7:14 8:0 
0 0 0 0 0 0 0 0 0.02838199488594102 0 1:21 2:4 3:9 4:12 5:2 6:17 7:19 8:5 
0 0.0007102826270700643 0 0 0 0 0 0 0 0 1:9 2:18 3:1 4:24 5:7 6:2 7:4 8:8 
0 0 5.94231450983076e-06 0 0 0 2.612099477595625e-06 0 0 0 1:8 2:8 3:20 4:10 5:8 6:33 7:26 8:11 
0 1.09292597074872e-06 0 0 0 0 0 0 0 0 1:2 2:9 3:14 4:14 5:33 6:31 7:3 8:9 
0.1340763557209609 0 0 0 0 0 0 0 0 0 1:8 2:0 3:20 4:19 5:7 6:5 7:6 8:7 
0.000264282706819746 0 0 0 0 0 0 0 0 0 1:2 2:21 3:5 4:14 5:12 6:4 7:3 8:7 
0.03799208134737484 0 0 0 0 0 0 0 0 0 1:0 2:24 3:4 4:2 5:21 6:6 7:2 8:6 
0.003924283769693383 0 0 0 0 0 0 0 0 0 1:13 2:9 3:0 4:8 5:14 6:5 7:27 8:6 
0.003638682950104102 0 0 0 0 0 0 0 0 0 1:8 2:20 3:5 4:12 5:2 6:7 7:10 8:32 
2.046384048890645e-05 0 0 7.881761137262249e-05 0 0 0 0 0 0 1:19 2:4 3:5 4:5 5:12 6:7 7:1 8:21 
0 0 0.04196487283189861 0 0 0 0.01013248003786912 0 0 0 1:19 2:2 3:8 4:16 5:16 6:31 7:2 8:34 
0 0 0 1.235801968930438e-06 0 0 0 0 0 0 1:16 2:4 3:14 4:22 5:9 6:23 7:6 8:23 
0 0 0 0 0.02017565040771797 0 0 0 0 0 1:8 2:0 3:18 4:6 5:19 6:33 7:32 8:17 
0 0 0 0.001305134524484342 0 0 0 0 0 0 1:8 2:14 3:11 4:30 5:10 6:23 7:8 8:35 
0 0 0 0 0 0.003962677737147449 0 0 0 0 1:9 2:18 3:4 4:1 5:13 6:2 7:27 8:34 
0 0 0 0 0 0 0 0 0.001922708790536271 0 1:19 2:7 3:1 4:25 5:9 6:12 7:16 8:8 
0 0 0 0 0 0 0 0 0.03429468515440776 0 1:1 2:3 3:17 4:14 5:15 6:13 7:28 8:31 
0 0 0 0 0 0 0 0 0.0008349655465523232 0 1:5 2:17 3:17 4:6 5:4 6:18 7:12 8:29 
0 0 0 0.0002800750479835001 0 0 0 0 0 0 1:24 2:11 3:12 4:24 5:19 6:27 7:27 8:30 
0 0 0 0 0 0 0 0 0.004674764576526935 0 1:5 2:21 3:13 4:16 5:3 6:18 7:8 8:35 
0 0 0 0 0 0 0.003411818254668995 0 0 0 1:1 2:13 3:16 4:7 5:0 6:29 7:12 8:14 
0 3.381230877868504e-05 3.934414924320028e-05 0 0 0 0 0 0 0 1:14 2:10 3:2 4:30 5:7 6:22 7:0 8:13 
0 0 0 0.0002775271880053238 0 0 0 0 0 0 1:17 2:2 3:4 4:28 5:32 6:29 7:14 8:18 
0 0.005974485510952262 0.01231423657465519 0 0 0 0.001231192187092894 0 0 0 1:15 2:3 3:0 4:4 5:9 6:3 7:29 8:31 
0 7.64332734626944e-06 9.693833109368904e-07 0 0 0 0 0 0 0 1:13 2:11 3:17 4:3 5:16 6:30 7:22 8:3 
0 0 0 0 0 0.01924014300060407 0 0 0 0 1:13 2:7 3:19 4:3 5:10 6:3 7:24 8:17 
0 0.0004303124802628936 0.003999347498522397 0 0 0 1.611005746427874e-08 0 0 0 1:26 2:2 3:4 4:14 5:18 6:34 7:16 8:35 
0 0.0005454853059378634 0 8.921917503873931e-05 0 0 0 0 0 0 1:14 2:5 3:1 4:28 5:19 6:19 7:5 8:31 
0.001656479263975325 0 0 0 0 0 0 0 0 0 1:20 2:16 3:6 4:18 5:23 6:9 7:17 8:31 
0 1.096572993565312e-06 0 0 0 0 0 0 0 0 1:13 2:1 3:19 4:13 5:8 6:23 7:5 8:32 
0 0 0 0 0 0 0 0 0.008765517648623239 0 1:20 2:5 3:12 4:17 5:2 6:18 7:3 8:3 
0 7.709370622284191e-05 0.0001787717293997243 0 0 0 0 0 0 0 1:15 2:0 3:10 4:23 5:8 6:24 7:19 8:27 
4.412032894298283e-05 0 0 0 0 0 0 0 0 0.03351873072579192 1:9 2:1 3:18 4:11 5:12 6:8 7:11 8:33 
0 0.0004911961356261137 0.01027869845037715 0 0 0 0 0 0 0 1:13 2:6 3:7 4:9 5:11 6:29 7:31 8:34 
0 0.0004799285485755051 0.003200524455003461 0 0 0 0 0 0 0 1:3 2:3 3:6 4:0 5:32 6:22 7:1 8:28 
0 0 0.0007993713769652429 0 0.05341562735871853 0 0 0 0 0 1:6 2:2 3:12 4:14 5:8 6:34 7:28 8:32 
0 6.42655956771558e-05 0 0 0 0 0 0 0 0 1:19 2:2 3:6 4:22 5:26 6:30 7:13 8:19 
0 0 0 0.002212257286621906 0 0 0 0 0 0 1:16 2:6 3:12 4:28 5:8 6:19 7:6 8:28 
0 0 0 0 0 0 0 0 0 0.003738901027080778 1:14 2:5 3:25 4:0 5:17 6:19 7:25 8:22 
0 0.0003245906936873362 0 0.1040374999049069 0 0 0 0 0.02327970443158012 0.1112548734194405 1:3 2:14 3:1 4:13 5:15 6:10 7:2 8:4 
0 0.00128481908345461 0 0 0 0 0 0 0 0 1:6 2:12 3:6 4:8 5:2 6:9 7:31 8:0 
0 0 0.0001808761201805105 0 0.0001139962709076351 0 0.004795131874924933 0 0 0 1:13 2:0 3:15 4:26 5:7 6:32 7:16 8:12 
0 0.000241605054071605 0 0 0 0 0 0 0 0 1:0 2:25 3:2 4:3 5:34 6:27 7:4 8:22 
0 0 0 4.86265839663817e-05 0 0 0 0 0 0 1:13 2:4 3:16 4:13 5:29 6:21 7:5 8:24 
0 2.226731018407432e-07 0 0 0 0 0 0 0 0 1:28 2:17 3:7 4:7 5:22 6:33 7:24 8:4 
0 0 0 0.002590687965181431 0 0 0 0 0 0 1:20 2:7 3:8 4:2 5:25 6:15 7:1 8:26 
0.0107423455575247 0 0 0 0 0 0 0 0 0 1:11 2:14 3:15 4:15 5:21 6:7 7:11 8:20 
0 0 0 0 0.009767410920146222 0 0.002493167420416708 0 0 0 1:6 2:20 3:16 4:28 5:5 6:35 7:4 8:33 
0 0 1.806973435281947e-05 0 0 0 0 0 0 0 1:5 2:23 3:0 4:22 5:10 6:23 7:15 8:27 
0 5.018008710803094e-06 0 0 0 0 0 0 0 0 1:3 2:12 3:18 4:30 5:2 6:31 7:1 8:29 
0 5.098615268941648e-05 0 0 0 0 0 0 0 0 1:13 2:2 3:17 4:10 5:21 6:35 7:31 8:1 
0 0 0 0 0 0 2.402627234817743e-06 0 0 0 1:3 2:1 3:0 4:19 5:10 6:26 7:15 8:7 
0 3.181215148376179e-07 0 0 0 0 0 0 0 0 1:1 2:12 3:2 4:23 5:25 6:24 7:2 8:25 
0 0 0 0 0 0.009357497557813642 0 0 0 0 1:24 2:11 3:2 4:24 5:10 6:0 7:16 8:4 
0 0 0 1.264956252481244e-06 0 0 0 0 0 0 1:0 2:21 3:5 4:20 5:1 6:19 7:16 8:22 
0 2.540335112774943e-06 0.00134255406548595 0 0 0 0.0008300415694470214 0 0 0 1:4 2:12 3:21 4:13 5:16 6:35 7:10 8:8 
0 0 0 0 0 8.046388481364802e-06 0 0 0 0 1:15 2:15 3:9 4:22 5:9 6:2 7:10 8:14 
0.003021934088901597 0 0 0 0 0 0 0 0 0 1:10 2:11 3:14 4:4 5:20 6:9 7:15 8:5 
0.0009239348443630384 0 0 0 0 0 0 0 0 0 1:6 2:9 3:19 4:18 5:8 6:5 7:10 8:24 
0 4.987366750217345e-05 0 0 0 0 0 0 0 0 1:25 2:16 3:9 4:34 5:15 6:35 7:11 8:7 
0 0 0 0 0 0 0 0 0 0.0004975326097698742 1:20 2:6 3:16 4:1 5:22 6:18 7:20 8:33 
0.0002558097307680958 0 0 0 0 0 0 0 0 0 1:15 2:11 3:10 4:6 5:23 6:5 7:3 8:28 
0 0.00259473544884662 0 0.006287657178896559 0 0 0 0 0 0 1:19 2:14 3:13 4:35 5:13 6:32 7:3 8:34 
0 4.028735927148438e-07 0 0 0 0 0 0 0 0 1:3 2:8 3:14 4:2 5:26 6:32 7:23 8:15 
0 0 0 0.0005233117340109788 0 0 0 0 0 0 1:11 2:16 3:17 4:17 5:6 6:23 7:32 8:26 
0 0 1.188252093870949e-06 0 0 0 0 0 0 0 1:13 2:3 3:16 4:16 5:14 6:27 7:10 8:27 
0 0 0 0.0004396385848794301 0 0 0 0 0.0008694508030952902 0 1:13 2:13 3:11 4:2 5:2 6:16 7:31 8:19 
0 0 0 0 0 0 0 0 0.001909245794106438 0.01124769579711348 1:4 2:12 3:3 4:17 5:23 6:12 7:16 8:7 
0 0.0009118924883551762 0 0 0 0 0 0 0 0 1:0 2:15 3:13 4:7 5:35 6:32 7:8 8:10 
0.0003139677401040373 0 0 0 0 0 0 0 0 0 1:9 2:12 3:3 4:3 5:32 6:4 7:14 8:3 
0 0 0 0.0004848246634738114 0 0 0 0 0 0 1:19 2:1 3:0 4:0 5:31 6:24 7:17 8:14 
0.00194917766115385 0 0 0 0 0 0 0 0 4.443166290916133e-06 1:7 2:15 3:7 4:16 5:25 6:8 7:5 8:29 
0 4.295592901326172e-06 0.0001083605778807322 0 0 0 0 0 0 0 1:1 2:11 3:14 4:3 5:26 6:25 7:24 8:33 
0 0 0 0.0003138637535474166 0 0 0 0 0 0 1:7 2:4 3:0 4:25 5:18 6:22 7:15 8:19 
0 0 1.605610607583022e-05 0 0 0 0 0 0 0 1:15 2:1 3:9 4:1 5:10 6:12 7:30 8:10 
0 0.0001159175813949206 5.929003112294467e-07 0 0.01800799029870143 0 0.0001370127436452469 0 0 0 1:7 2:5 3:10 4:5 5:22 6:31 7:20 8:2 
0 1.127858073186465e-05 0 0 0 0 0 0 0 0 1:16 2:9 3:18 4:5 5:5 6:26 7:4 8:15 
0 0 0.0002458679899943256 0 0 0 0 0 0 0 1:11 2:1 3:13 4:20 5:22 6:28 7:15 8:33 
0 4.880231761747683e-06 0 0 0 0 0 0 0 0 1:20 2:4 3:7 4:34 5:16 6:28 7:11 8:10 
0 0.00462490355194726 0 0 0 0 0 0 0 0 1:1 2:16 3:7 4:9 5:1 6:0 7:33 8:6 
0 5.431800292293806e-05 0 0 0 0 0 0 0 0 1:8 2:14 3:15 4:17 5:11 6:25 7:8 8:30 
0 0 1.054333507617908e-05 0 0 0 0 0 0 0 1:15 2:5 3:3 4:11 5:23 6:27 7:25 8:4 
0 0.004966732127214444 0 0 0 0 0 0 0 0 1:27 2:17 3:11 4:34 5:25 6:35 7:8 8:3 
0 7.023399753682193e-05 0 0 0 0 0 0 0 0 1:16 2:11 3:20 4:2 5:24 6:34 7:5 8:14 
0 6.262050333462541e-05 0 0 0 0 0 0 0 0 1:0 2:14 3:23 4:0 5:27 6:35 7:30 8:19 
0 2.942056901732959e-07 0 0 0 0 0 0 0 0 1:17 2:10 3:19 4:6 5:8 6:33 7:4 8:20 
0.6436879352083361 0.0006161175624188424 0 0.03522866051939248 0 0.1179448238308864 0 0 0 0 1:13 2:6 3:3 4:3 5:2 6:4 7:0 8:15 
1.615731225554853e-07 0 0 0 0 0 0 0 0 0 1:3 2:9 3:19 4:22 5:32 6:7 7:13 8:22 
0 1.258571265338811e-05 0 0 0 0 0 0 0 0.002678008539926182 1:16 2:11 3:0 4:31 5:14 6:15 7:5 8:12 
0 1.332065514374346e-06 9.216381715282408e-05 0 8.705729966627526e-07 0 0.000188549817859968 0 0 0 1:10 2:4 3:17 4:5 5:18 6:30 7:8 8:19 
0 0 0 0.001147636412294786 0 0 0 0 0 0 1:14 2:14 3:9 4:20 5:17 6:22 7:4 8:33 
0 0.000667056460224281 0 0 0 0 0 0 0 0 1:17 2:15 3:11 4:19 5:16 6:29 7:18 8:5 
0 0 0 9.944378106482084e-05 0 0 0 0 0.07168185775828342 0 1:2 2:9 3:0 4:11 5:19 6:14 7:22 8:14 
0 0 0.002225449175594846 0 0 0 0 0 0 0 1:7 2:24 3:12 4:2 5:11 6:33 7:24 8:24 
0 0 0 0 0 0.001718741813552924 0 0 0 0 1:17 2:8 3:12 4:30 5:13 6:0 7:5 8:7 
0 0 0 0 0.0001887241697056804 0 0 0 0 0 1:21 2:10 3:2 4:1 5:8 6:33 7:5 8:19 
0 0 0 0 0 0.001811108625574676 0 0 0 0 1:8 2:9 3:18 4:18 5:10 6:1 7:8 8:24 
0 0 0 0 0 0 0 0 0.003385018781377769 0 1:10 2:0 3:18 4:19 5:21 6:18 7:10 8:32 
0 0 2.606170222870232e-05 0 0.0001436360982676945 0 5.652316905627988e-07 0 0 0 1:1 2:19 3:7 4:10 5:23 6:30 7:2 8:21 
0.00826067463849567 0 0 0 0 0 0 0 0 0 1:4 2:27 3:23 4:27 5:25 6:11 7:11 8:29 
0 3.973858956558369e-05 0 0 0 0 0 0 0 0 1:0 2:21 3:6 4:12 5:25 6:17 7:23 8:6 
0.005893457643812063 0 0 0 0 0 0 0 0 0.00619829283986338 1:19 2:5 3:14 4:3 5:10 6:9 7:24 8:11 
0 0 0.0004124811122952953 0 0 0 0 0 0 0 1:4 2:21 3:9 4:3 5:14 6:29 7:12 8:13 
0 0.002671952319617837 0.0008339247747609891 0 0 0 0.007109532321401792 0 0 0 1:4 2:5 3:1 4:9 5:32 6:30 7:4 8:0 
0 0.005507931468794415 9.856334582227559e-05 0 0 0 0.002915042590111558 0 0 0 1:7 2:9 3:2 4:0 5:7 6:19 7:25 8:0 
0 8.775973834885208e-07 0 7.163486897840406e-05 0 0 2.326619060444164e-05 0 0 0 1:4 2:3 3:3 4:14 5:27 6:23 7:0 8:0 
0 0 0 0 0 0 0 0 7.173891530724812e-05 0 1:6 2:12 3:23 4:19 5:10 6:19 7:22 8:3 
0 0 0 0 0 0 0 0 0 0.0324048131936603 1:10 2:7 3:17 4:1 5:8 6:11 7:31 8:5 
0 0 0 0 0.002003424412087007 0 0 0 0 0 1:0 2:2 3:13 4:1 5:3 6:32 7:33 8:29 
0 0.004836150080264315 0 0 0 0 0 0 0 0 1:17 2:20 3:12 4:2 5:8 6:32 7:3 8:20 
0 0.0003430517216319054 0 0 0 0 0 0 0 0 1:14 2:5 3:8 4:18 5:32 6:30 7:7 8:0 
0 0 0 8.611810659110207e-05 0 0 0 0 0 0 1:11 2:10 3:8 4:15 5:28 6:22 7:12 8:31 
0 4.647597496757162e-05 7.330762719877857e-07 0 0 0 1.407417102655451e-05 0 0 0 1:7 2:11 3:15 4:28 5:6 6:31 7:9 8:10 
0 0 0 0 0 0 2.377072646421064e-05 0 0 0 1:22 2:6 3:0 4:0 5:16 6:29 7:30 8:15 
0 1.356430296279436e-06 0 0 0 0 0 0 0 0 1:9 2:1 3:28 4:20 5:15 6:31 7:11 8:15 
0 0.03633238254692631 0.06163549063893964 0.0003748437189021386 0 0 6.105256188115163e-07 0 0 0 1:2 2:0 3:14 4:15 5:2 6:19 7:4 8:4 
0 3.034073411749919e-07 0.0001842812758718175 0 0 0 0 0 0 0 1:17 2:8 3:1 4:13 5:31 6:34 7:10 8:21 
0 2.926623461351355e-07 3.432779892445432e-05 0 0 0 0 0 0 0 1:8 2:1 3:21 4:22 5:5 6:27 7:18 8:15 
0 0 1.760804148787751e-05 0 0 0 0 0 0 0 1:21 2:1 3:10 4:7 5:31 6:28 7:7 8:25 
0 0.0108836632562262 0 0 0 0 0 0 0.07775335328032076 0 1:22 2:3 3:6 4:0 5:1 6:18 7:22 8:1 
0 0.000733502115721257 0.01547348240249898 5.154758413982634e-05 0.0003604273903527029 0 0.02230116576468591 0 0 0 1:3 2:4 3:8 4:16 5:0 6:19 7:6 8:12 
0 0 1.161070951679575e-06 0 0 0 0 0 0 0 1:13 2:1 3:8 4:8 5:27 6:29 7:20 8:8 
0.3282753209712611 0 0 0 0 0 0 0 0.001679289222306436 0.9997574127010898 1:3 2:5 3:8 4:20 5:8 6:6 7:2 8:6 
0.002601412743962158 0 0 0 0 0 0 0 0 0 1:11 2:10 3:18 4:20 5:15 6:5 7:18 8:1 
0 0 0 0 0 0 0 0 0.0002781661381198443 0 1:12 2:17 3:7 4:1 5:7 6:15 7:27 8:13 
0 1.368144371124971e-05 0 0 0 0 0 0 0 0 1:18 2:12 3:7 4:22 5:26 6:31 7:9 8:18 
0 0 0.0007129573771971775 0 0 0 0 0 0 0 1:13 2:11 3:2 4:29 5:25 6:35 7:10 8:22 
0 0 2.754183670253717e-05 0.0006915655719505312 0 0 0 0 0 0 1:1 2:19 3:7 4:0 5:14 6:20 7:20 8:9 
0 0 0 0.005241310906237339 0 0 0.001006644150333597 0 0 0 1:0 2:14 3:4 4:14 5:2 6:17 7:13 8:19 
0 0 0 2.396353520473247e-05 0 0 0 0 0 0 1:2 2:8 3:22 4:23 5:14 6:21 7:14 8:32 
0 0 0 0 0 0 0.0009479750218551331 0 0 0 1:5 2:4 3:1 4:34 5:3 6:1 7:4 8:27 
0 4.967320992508255e-05 0.005380631972158863 0 0 0 0.001095474499423986 0 0 0 1:10 2:18 3:2 4:10 5:33 6:34 7:19 8:35 
0 0 0 0 0 0 0.0004781350152714542 0 0 0 1:0 2:6 3:19 4:31 5:4 6:31 7:4 8:34 
0 0 0 0.0006004958956097051 0 0 0 0 0 0 1:21 2:8 3:11 4:25 5:24 6:23 7:5 8:28 
0 0 0 3.78081206690892e-06 0 0 0 0 0 0 1:20 2:5 3:7 4:22 5:5 6:21 7:17 8:21 
0 5.644884718360147e-08 1.297299140989148e-05 0 0 0 0.01129960965276089 0 0 0 1:1 2:6 3:23 4:15 5:5 6:34 7:20 8:33 
0 0.0001405878954212621 0.00111892265541146 1.905178862026305e-05 0 0 0 0 0 0 1:0 2:11 3:16 4:22 5:14 6:27 7:15 8:24 
0 0 0.0001507515135955733 0 0 0 0 0 0 0 1:2 2:9 3:14 4:3 5:0 6:20 7:10 8:1 
0 0.004346382163050171 3.478882956470782e-06 0.02170289781774067 0 0 0 0 0 0 1:2 2:0 3:1 4:1 5:0 6:20 7:7 8:18 
0 0.0006045815972593938 0 0 0 0 0 0 0 0 1:11 2:15 3:5 4:32 5:34 6:35 7:11 8:16 
0 0 0 0.0005169833849927243 0 0 0 0 0 0 1:14 2:7 3:2 4:16 5:32 6:22 7:18 8:2 
0 2.682110048332755e-06 0 0 0 0 0 0 0 0 1:11 2:12 3:17 4:12 5:16 6:28 7:18 8:3 
0.002423988033770973 0 0 0 0 0 0 0 0 0.0007858112179575007 1:6 2:13 3:6 4:9 5:4 6:4 7:24 8:4 
0 0 0 0 5.432451159977851e-06 0 7.866276001165199e-05 0 0 0 1:9 2:6 3:5 4:16 5:3 6:27 7:22 8:7 
0.001218725328482255 0 0 0 0 0 0 0 0 0 1:21 2:11 3:10 4:28 5:21 6:10 7:10 8:22 
0.001223985810982921 0 0 0 0 0 0 0 0 0 1:16 2:13 3:12 4:7 5:14 6:7 7:3 8:18 
2.85285695054838e-05 0 0 0 0 0 0 0 0 0 1:1 2:2 3:21 4:17 5:25 6:9 7:6 8:28 
0 0 4.303515074392668e-05 0 0 0 0 0 0 0 1:16 2:1 3:21 4:7 5:6 6:28 7:35 8:32 
0 0 0 0 0 0 0.0009348631701859824 0 0 0 1:5 2:17 3:0 4:2 5:23 6:29 7:26 8:6 
0.0005081074697978763 0 0 0 0 0 0 0 0 0 1:15 2:11 3:11 4:26 5:21 6:7 7:9 8:6 
0.04360453233815834 0 0 0 0 0 0 0 0 0 1:0 2:0 3:27 4:28 5:4 6:5 7:1 8:31 
0 2.930130750113459e-05 0 0 0 0 0 0 0 0 1:4 2:15 3:19 4:19 5:34 6:31 7:16 8:4 
0 0 0 0 0 0 0 0 0 0.01171781442186551 1:10 2:0 3:18 4:9 5:11 6:12 7:33 8:0 
4.302628242796794e-05 0 0 0 0 0 0 0 0 0 1:11 2:1 3:20 4:6 5:23 6:9 7:8 8:14 
0 0 0 0 0 0 0.004317227815029918 4.437497188786676e-05 0 0 1:22 2:1 3:3 4:33 5:8 6:35 7:1 8:33 
0 0 1.73606552878607e-07 0 0 0 0 0 0 0 1:23 2:10 3:7 4:10 5:12 6:31 7:29 8:25 
0 4.517036719509615e-05 0 0.00010830447658726 0 0 0 0 0 0 1:14 2:17 3:7 4:26 5:11 6:22 7:2 8:32 
0 0 0 0 0 0.003617258177504413 0 0 0 0 1:29 2:21 3:19 4:33 5:25 6:4 7:31 8:30 
0 0 8.345666437295689e-08 0 0 0 0 0 0 0 1:10 2:10 3:14 4:19 5:6 6:32 7:31 8:30 
0 0 0 0 0 0 0 0 4.827863382631204e-07 0 1:4 2:12 3:26 4:10 5:15 6:23 7:20 8:2 
0.005303797645065198 0 0 0 0 0 0 0 0 0 1:7 2:4 3:19 4:22 5:15 6:7 7:14 8:19 
0.0008179071287450772 0 0 0 0 0 0 0 0 0 1:1 2:29 3:25 4:1 5:16 6:11 7:7 8:12 
0 1.183976767885596e-05 0 0 0 0 0 0 0 0 1:21 2:4 3:2 4:28 5:18 6:10 7:8 8:2 
0 0 0 0 0 0 0 0 0 0.01574416101607078 1:22 2:24 3:33 4:27 5:34 6:27 7:35 8:34 
0 0 0.000103690917089322 0 0 0 0 0 0 0 1:9 2:7 3:16 4:35 5:3 6:31 7:0 8:7 
0 0 0 0 0.01424920585272334 0 0.003091874531872668 0 0 0 1:9 2:17 3:2 4:1 5:26 6:35 7:28 8:15 
0 0.002704764620098883 0 0 0 0 0 0 0 0 1:6 2:7 3:31 4:35 5:6 6:34 7:3 8:35 
0 0 0.00114382498949895 0.0005245134114350572 0 0 0 0 0 0 1:3 2:13 3:9 4:24 5:21 6:21 7:1 8:34 
0 0 0 0 0 0.00801897931053655 0 0 0 0 1:13 2:6 3:17 4:3 5:31 6:3 7:7 8:26 
0 0.0007718455323945245 0 0 0 0 0 0 0 0 1:14 2:14 3:9 4:25 5:32 6:35 7:17 8:6 
0 0 0 0 0 0 0 0 0 0.06960880291248825 1:5 2:1 3:20 4:23 5:3 6:11 7:7 8:21 
0 0 0 0 0 0 1.529297634862128e-05 8.93936013308539e-05 0 0 1:2 2:5 3:21 4:5 5:8 6:34 7:12 8:1 
0 0 0 0 0 0 0 0 0 7.341229654943069e-05 1:23 2:9 3:16 4:5 5:5 6:12 7:32 8:7 
0 2.642747829555581e-07 0 0 0 0 0 0 0 0 1:18 2:16 3:9 4:27 5:24 6:19 7:5 8:3 
0 0 0.0001165754371906203 0 0 0 2.754171720310881e-07 0 0 0 1:18 2:0 3:5 4:20 5:17 6:29 7:24 8:11 
0 6.746357582817595e-05 0 0 0 0 8.499731416489332e-06 0 0 0 1:2 2:13 3:15 4:17 5:9 6:26 7:24 8:5 
0 0 2.893342265236409e-05 0 0.0001472077946694748 0 0.005190828894962156 0 0 0 1:1 2:6 3:16 4:15 5:26 6:32 7:2 8:6 
0 9.353226581043948e-06 0 0 0 0 0 0 0 0 1:7 2:11 3:18 4:17 5:23 6:27 7:28 8:1 
8.389024970095781e-05 0 0 0 0 0 0 0 0 0 1:9 2:0 3:4 4:28 5:2 6:7 7:14 8:19 
0 0 0 0 0 0.003492871464161025 0 0 0 0 1:11 2:19 3:3 4:9 5:27 6:3 7:13 8:34 
0 0 0 0.001220293834918278 0 0 0 0 0 0 1:15 2:16 3:17 4:28 5:30 6:30 7:14 8:33 
0 0 1.341314864830887e-05 0 0 0 0 0 0 0 1:22 2:2 3:4 4:19 5:21 6:25 7:3 8:22 
0 0 0 0.006050569212520054 0 0 0 0 0 0 1:15 2:1 3:6 4:6 5:3 6:11 7:30 8:1 
0 0 0 0 0 0.02033838429917048 0 0 0 0 1:17 2:12 3:2 4:17 5:5 6:2 7:18 8:8 
0 4.676039334574495e-07 2.80211283231101e-06 1.751056295126982e-05 0 0 0 0 0 0 1:13 2:10 3:7 4:14 5:16 6:26 7:23 8:32 
1.350156041461692e-05 0 0 0 0 0 0 0 0 0 1:3 2:12 3:20 4:17 5:15 6:9 7:3 8:25 
0 0 0.0001417519988019507 0 0 0 0 0 0 0 1:19 2:16 3:6 4:7 5:8 6:31 7:17 8:23 
0 1.069405895851354e-05 0 0.0003039143508845516 0 0 0 0 0 0 1:17 2:0 3:8 4:1 5:3 6:12 7:30 8:6 
0 0.000165825500773518 0 0 0 0 0 0 0 0 1:29 2:8 3:7 4:1 5:15 6:29 7:25 8:6 
0 0 0.008740651924701298 0 0 0 9.266551936288673e-07 0 0 0 1:0 2:9 3:10 4:15 5:22 6:31 7:19 8:0 
0 0 2.078151268632146e-05 0 0 0 0 0 0 0 1:7 2:9 3:18 4:0 5:2 6:30 7:32 8:9 
0 0 0.000374715203232735 0 0 0 0.000438816047431712 0 0 0 1:5 2:2 3:12 4:25 5:25 6:34 7:9 8:3 
0 0 6.024377076649259e-05 0 0 0 0 0 0 0 1:2 2:14 3:16 4:17 5:13 6:31 7:24 8:22 
0 0.0006521218321430941 0 0 0 0 0 0 0 0 1:16 2:8 3:10 4:2 5:1 6:18 7:31 8:3 
0 0 0 1.662320271610418e-07 0 0 0 0 0 0 1:25 2:4 3:5 4:34 5:7 6:24 7:6 8:25 
0.005720081126978327 0 0 0 0 0 0 0 0 0 1:3 2:14 3:16 4:12 5:5 6:6 7:14 8:28 
0 0 0 0 0 0 0 0 0 0.0001488202630156603 1:4 2:7 3:24 4:16 5:31 6:16 7:13 8:17 
0 0 0 0 0.0005500636101393405 0 0.0001229887746450565 4.048197758499136e-06 0 0 1:4 2:5 3:14 4:2 5:5 6:33 7:30 8:10 
0 0 8.060574594030302e-05 0 0 0 0 0 0 0 1:8 2:22 3:3 4:22 5:1 6:27 7:9 8:26 
0 0 0 0.00184850297434907 0 0 0 0 0 0 1:15 2:4 3:0 4:12 5:35 6:24 7:16 8:18 
0.002618354535539141 0 0.0005614351509249482 0 0 0 0 0 0 0 1:19 2:0 3:14 4:5 5:16 6:4 7:21 8:0 
0.001625558076675576 0 0 0.01006905255296981 0 0 0 0 0 0 1:14 2:2 3:9 4:6 5:0 6:7 7:33 8:23 
0 0.03399853983283627 0 0 0 0 0 0 0 0 1:21 2:13 3:18 4:0 5:19 6:34 7:0 8:5 
0 0 0.0009810356096329319 0 0 0 0 0 0 0 1:24 2:5 3:19 4:12 5:17 6:35 7:24 8:26 
0 1.669934568094698e-05 0 0 0 0 0 0 0 0 1:25 2:8 3:12 4:5 5:31 6:31 7:23 8:0 
0.001472240780758858 0 0 0 0 0 0 0 0 0 1:11 2:2 3:16 4:7 5:7 6:7 7:30 8:23 
0 0.000194435178928563 0 0.0005364964112886245 0 0 0 0 0 0 1:14 2:7 3:16 4:13 5:9 6:24 7:15 8:34 
0.02496926230504956 0 0 0 0 0 0 0 0 0 1:15 2:12 3:10 4:13 5:16 6:7 7:11 8:31 
0 0.0003816314852087234 1.48917683738654e-05 0 0 0 0 0 0 0 1:5 2:12 3:17 4:1 5:10 6:28 7:28 8:12 
0 5.784132966437562e-07 5.134178712358432e-05 0 3.442237339335724e-06 0 6.561039635235451e-07 0 0 0 1:8 2:13 3:14 4:5 5:10 6:33 7:6 8:10 
0 0 5.332774279574982e-05 0 0 0 8.697329956580408e-08 0 0 0 1:7 2:21 3:1 4:26 5:14 6:32 7:0 8:9 
0 0.0001601348096986026 0 0 0 0 0 0 0 0 1:16 2:8 3:11 4:1 5:6 6:16 7:8 8:3 
0.01254816053269379 0 0 0 0 0 0 0 0 0 1:10 2:19 3:9 4:19 5:14 6:7 7:8 8:31 
0 0 0 0 0 0 0 0 0 0.06506064197380569 1:15 2:6 3:14 4:2 5:15 6:12 7:27 8:0 
0 0 0.003935534971405266 0 0.00181737353219858 0 0.009150032324759286 3.409594004263518e-05 0 0 1:1 2:6 3:8 4:12 5:30 6:35 7:6 8:35 
0 0 0 0 0 0 0 0 9.120889543017394e-06 0 1:5 2:11 3:9 4:31 5:12 6:13 7:4 8:24 
0 0.0009869418472994145 0.001400580822615172 0 0 0 0.000222154604737701 0 0 0 1:1 2:12 3:1 4:3 5:19 6:30 7:0 8:0 
0 0 0 0 0.01235519901046499 0 0.0006915897522405199 0 0 0 1:22 2:4 3:6 4:22 5:11 6:35 7:19 8:8 
0.00801927404581998 0 0 0 0 0 0 0 0 0 1:22 2:8 3:14 4:21 5:21 6:9 7:24 8:18 
0.01197860763242061 0 0 0 0 0 0 0 0 9.216768330373885e-05 1:11 2:15 3:0 4:17 5:5 6:10 7:26 8:32 
0 0 0 0 0 0 0 0 0.01037302094512543 0 1:2 2:21 3:14 4:20 5:20 6:22 7:20 8:34 
0 0 0 0 0 0 0 0 0.02593422411273978 0 1:15 2:0 3:17 4:18 5:13 6:18 7:12 8:24 
0 0 0.00432809579743168 0 0 0 0 0 0 0 1:0 2:15 3:13 4:18 5:30 6:34 7:18 8:26 
0 0 0 0.0007629577322858901 0 0 0 0 0 0.01599113279591129 1:5 2:5 3:22 4:4 5:8 6:14 7:23 8:32 
0 5.463945946113624e-06 0 0 0 0 0 0 0 0 1:12 2:3 3:16 4:21 5:26 6:29 7:2 8:3 
0 0 2.12095760829886e-06 0 0 0 0 0 0 0 1:4 2:10 3:0 4:16 5:19 6:31 7:20 8:13 
0 0.0006536851672677382 0 0 0 0 0 0 0 0 1:14 2:10 3:16 4:31 5:13 6:28 7:8 8:13 
0.001457637374340442 0 0 0 0 0 0 0 0 0 1:16 2:13 3:13 4:10 5:21 6:11 7:24 8:35 
0 0 0 0 0 0 0 0 0.0005855495901837043 0 1:18 2:2 3:11 4:29 5:23 6:16 7:6 8:20 
0 0.0001127523821536412 0 0 0 0 0 0 0 0 1:30 2:12 3:12 4:0 5:13 6:29 7:13 8:0 
0 0.0003948218694759313 0 0 0 0 0 0 0 0 1:3 2:25 3:10 4:17 5:32 6:33 7:9 8:22 
0 0 0 0 0 0 0 0 0.009603662411171689 0 1:7 2:7 3:20 4:14 5:5 6:18 7:2 8:1 
0 0.001969374889744581 0 3.547954106707389e-05 0 0 0.004883189979113938 0 0.002449336813374554 0 1:3 2:9 3:3 4:1 5:10 6:12 7:22 8:0 
0 0 0 0 0 0 0 0 6.550618352845575e-07 0 1:15 2:8 3:11 4:28 5:19 6:14 7:1 8:5 
0 0 0 0 0 0 0 0 0 0.00422358053192591 1:1 2:20 3:2 4:25 5:18 6:13 7:5 8:8 
0 3.949919271842835e-07 0 0 0 0 0 0 0 0 1:21 2:2 3:9 4:7 5:3 6:25 7:31 8:0 
0 0.0004166444987282876 0 0 0 0.01803570704589478 0 0 0 0 1:11 2:12 3:0 4:14 5:5 6:0 7:20 8:3 
0 0 0.0001072621998887869 0 0 0 0 0 0 0 1:10 2:5 3:23 4:4 5:0 6:32 7:30 8:13 
0 0 0 1.546025502341808e-05 0 0 0 0 0 0.00643560216752154 1:20 2:2 3:8 4:9 5:3 6:11 7:25 8:20 
0 0.0005918993787928026 0 0 0 0 0 0 0 0 1:4 2:25 3:14 4:8 5:28 6:32 7:31 8:10 
0 9.091418335350923e-06 0 0 0 0 0 0 0 0 1:1 2:18 3:5 4:12 5:29 6:16 7:0 8:7 
0 0.002557862452091298 0.0107012611280026 0 0 0 0 0 0 0 1:24 2:15 3:0 4:20 5:24 6:35 7:22 8:34 
0 0.01328236138393306 0.01315642521970515 0 0.1998262901555056 0 0.1201070548612743 4.061615833463369e-05 0 0 1:7 2:12 3:9 4:20 5:19 6:34 7:13 8:34 
0 0 0 0.001334389376320131 0 0 0 0 0 0 1:7 2:7 3:21 4:9 5:8 6:15 7:20 8:22 
0 0 0 0 0 0 0 0 0.006667775339117994 0.01139952224719944 1:1 2:8 3:0 4:2 5:29 6:17 7:18 8:29 
0.005687781201436069 0 0 0 0 0 0 0 0 0 1:12 2:8 3:16 4:17 5:13 6:8 7:18 8:25 
0 0.000906296191033339 1.636984963093114e-05 0 0 0 0.01260839664197197 7.968268975303439e-05 0 0 1:16 2:1 3:14 4:5 5:6 6:33 7:14 8:19 
0 0 0 0 0 0 0 0 0.04920488515504523 0 1:0 2:22 3:16 4:26 5:0 6:20 7:7 8:34 
0 2.025028409475686e-05 2.119215427453056e-06 0 0 0 0 0 0 0 1:13 2:4 3:17 4:14 5:20 6:28 7:14 8:0 
0 0 0 0.0005084126168798345 0 0 0 0 0 0 1:20 2:1 3:11 4:15 5:13 6:21 7:26 8:26 
0 0.0003327148489483414 0 0 0 0 0 0 0 0 1:27 2:13 3:11 4:28 5:21 6:34 7:12 8:23 
0 0 0 0 0 0 0 0 0.008390389129497907 0 1:1 2:0 3:24 4:16 5:6 6:15 7:31 8:21 
0 0.0004000854288581854 0 0 0 0 0 0 0 0 1:0 2:20 3:7 4:6 5:35 6:22 7:8 8:25 
0 0.003959045191448274 0.01139211099946124 0 0.005982020254052607 0 0 0 0 0 1:0 2:18 3:7 4:3 5:35 6:29 7:3 8:35 
0 0 0 2.669381073326398e-05 0 0 0 0 0 0 1:8 2:0 3:1 4:31 5:15 6:18 7:7 8:30 
0 0 0.000121106767681224 0 0.008680107350996176 0 0 0 0 0 1:3 2:0 3:14 4:12 5:3 6:33 7:33 8:28 
0 0.005619909592447706 0 0 0 0 0 0 0 0 1:29 2:5 3:10 4:22 5:34 6:35 7:16 8:3 
0.01569823307130391 0 0 0 0 0 0 0 0 0 1:13 2:20 3:5 4:19 5:29 6:7 7:7 8:12 
0 0 0 4.182473294228696e-07 0 0 0 0 0 0 1:18 2:4 3:11 4:23 5:22 6:21 7:11 8:5 
0 0 0 0 0 0 0 0 4.286816899512033e-06 0 1:2 2:22 3:14 4:21 5:25 6:18 7:11 8:32 
0 0 0.002069179093097595 0 0 0 0 0 0 0 1:2 2:13 3:12 4:24 5:20 6:32 7:18 8:34 
0 5.462825341181507e-06 0 0 0 0 0 0 0 0 1:16 2:16 3:14 4:0 5:6 6:25 7:9 8:10 
0 0 0 0 0 0 0 0 1.829744526565119e-05 0 1:19 2:7 3:8 4:19 5:17 6:16 7:18 8:4 
0.01711320664680507 0.0009859416554345395 0 0 0 0 0 0 0 0 1:0 2:8 3:4 4:10 5:32 6:5 7:9 8:0 
0 0 0 0 0 0 0 0 0.008373762435649504 0 1:5 2:12 3:35 4:34 5:29 6:32 7:0 8:32 
0.004340741621882918 0 0 0 0 0 0 0 0 0 1:1 2:6 3:34 4:4 5:28 6:13 7:15 8:5 
0.01150771193201129 0 0 0 0 0 0 0 0 0 1:27 2:1 3:34 4:4 5:12 6:16 7:2 8:11 
0 0 0 0 0 0 0 0 0 0.04819405566691826 1:18 2:0 3:0 4:1 5:33 6:8 7:0 8:17 
0 9.981472028440197e-08 3.42340381290238e-05 0 0 0 0 0 0 0 1:0 2:19 3:6 4:18 5:17 6:31 7:21 8:27 
0.0008705172790359044 0 0 0 0 0 0 0 0 0 1:8 2:12 3:23 4:19 5:29 6:10 7:27 8:25 
0 0 0 2.402213694697852e-07 0 0 0 0 0 0 1:17 2:2 3:2 4:28 5:23 6:23 7:20 8:4 
0 0 0 0 0 0 0 0 0.01245058895654543 0 1:14 2:12 3:13 4:29 5:25 6:20 7:16 8:35 
0 0.0006378998536520806 0 0 0 0 0 0 0 0 1:22 2:7 3:9 4:1 5:2 6:23 7:32 8:9 
0 0 0 1.313952831725885e-06 0 0 0 0 0 0 1:19 2:6 3:1 4:9 5:2 6:14 7:29 8:12 
0 0 3.35576282877177e-06 0 0 0 0 0 0 0 1:3 2:5 3:12 4:25 5:21 6:32 7:9 8:15 
0 2.893959073487363e-06 0 0 0 0 0 0 0 0 1:2 2:13 3:17 4:22 5:31 6:29 7:17 8:0 
0 0 0 1.284875286588949e-06 0 0 0 0 0.0008913915179435943 0 1:4 2:6 3:20 4:16 5:16 6:21 7:1 8:16 
0 0 0 0.0001628949806338188 0 0 0 0 0 0 1:13 2:19 3:15 4:3 5:10 6:28 7:33 8:27 
0 1.501033838391674e-06 0 0 0 0 0 0 0 0 1:3 2:4 3:8 4:12 5:29 6:31 7:16 8:33 
0 1.833188907404921e-05 0 0 0 0 0 0 0 0 1:7 2:23 3:1 4:3 5:29 6:29 7:5 8:13 
0 8.392093683579452e-05 0 0 0 0 0 0 0 0 1:12 2:16 3:20 4:26 5:9 6:32 7:4 8:23 
0 3.041125350119491e-06 2.502297426832538e-06 0 0 0 1.081406396373984e-06 0 0 0 1:4 2:14 3:1 4:12 5:12 6:17 7:0 8:8 
0 5.172364528141334e-05 0 0 0 0 0 0 0 0 1:15 2:8 3:25 4:29 5:12 6:35 7:16 8:22 
0 0 0 0 0 0 0 0 0 0.03854795656104375 1:8 2:18 3:0 4:9 5:3 6:8 7:29 8:34 
0 9.095071896344521e-07 0 0 0 0 0 0 0 0 1:3 2:18 3:17 4:8 5:28 6:33 7:29 8:5 
0 0 0 0 0 0 4.519750933178181e-05 0 0 0 1:9 2:0 3:8 4:13 5:15 6:28 7:26 8:13 
0 0 0 0 0.06183395969137975 0 0.0001050381694680742 0 0 0 1:9 2:1 3:15 4:1 5:26 6:34 7:17 8:16 
0 0 4.865365481391367e-06 0 0 0 0 0 0 0 1:11 2:21 3:4 4:0 5:10 6:31 7:27 8:28 
0 0.0006159613544534178 0 0 0 0 0 0 0 0 1:12 2:13 3:26 4:25 5:11 6:35 7:13 8:33 
0 0 5.792216939061038e-05 0.003541563204473507 0 0.04886221065079555 0 0 0 0 1:3 2:4 3:1 4:20 5:6 6:2 7:22 8:28 
0 0 0 0 0 0 0.0005292189097026069 0 0 0 1:20 2:8 3:0 4:11 5:15 6:28 7:2 8:1 
0 0 0 0.01335376810872449 0 0 0 0 0 0 1:21 2:4 3:8 4:18 5:7 6:16 7:1 8:27 
0 1.683432430115936e-05 0 0 0 0 0 0 0 0 1:8 2:7 3:17 4:26 5:11 6:33 7:21 8:4 
0 0.0008329205236353045 0 0 0.007575358208293821 0 0.019612966446681 0 0 0 1:1 2:0 3:3 4:7 5:10 6:35 7:17 8:11 
0 0 0 2.359399607177595e-06 0 0 0 0 5.639225733906701e-06 0 1:7 2:5 3:9 4:16 5:13 6:15 7:24 8:26 
0 0.0002281695185780202 0 0 0 0 0 0 0 0 1:18 2:0 3:22 4:20 5:14 6:31 7:19 8:9 
0 0 0 0 0 0.01867938927807111 0 0 0 0 1:22 2:6 3:2 4:3 5:9 6:3 7:24 8:4 
0 0.000156266431338511 1.330444588650589e-05 0 0 0 0 0 0 0 1:16 2:0 3:8 4:27 5:24 6:31 7:10 8:13 
0 0 0 0 0 0.01401373307090453 0 0 0 0 1:14 2:15 3:5 4:15 5:16 6:3 7:15 8:28 
0 2.317380493457539e-05 1.363156698392744e-06 0 0 0 0 0 0.0008636562629657589 0 1:1 2:13 3:14 4:7 5:5 6:19 7:4 8:31 
0 9.502336286463636e-07 0 0 0 0 0 0 0 0 1:7 2:0 3:25 4:10 5:14 6:22 7:4 8:3 
0 0 6.132010217755186e-05 0 0 0 0 0 0 0 1:9 2:9 3:21 4:7 5:0 6:32 7:31 8:21 
0 3.601173953948254e-06 0 0.001723650552507022 0 0 0 0 0 0 1:5 2:7 3:12 4:33 5:12 6:28 7:1 8:18 
0 0 0 0 0 0.008390835595567926 0 0 0 0 1:15 2:17 3:1 4:17 5:3 6:1 7:6 8:26 
0 0 0 0 0 0 0 0 0 0.02707935295786946 1:9 2:16 3:23 4:30 5:17 6:16 7:13 8:25 
0 0 0 1.555581392965943e-05 0 0 0 0 0 0 1:12 2:0 3:13 4:25 5:7 6:22 7:19 8:18 
0 0 0 0 0 0 0.08447480080692478 0 0 0 1:26 2:11 3:5 4:16 5:0 6:34 7:3 8:4 
0 0.0004120202200898974 0 0 0 0 0 0 0 0 1:19 2:11 3:12 4:23 5:13 6:32 7:13 8:32 
0 0 3.635445273525552e-05 0 0 0 0 0 0 0 1:15 2:0 3:15 4:16 5:17 6:26 7:21 8:12 
0 0 0 0.003264369134772317 0 0 0 0 0 0 1:9 2:13 3:18 4:4 5:20 6:27 7:20 8:35 
0 0 0 5.7356978811069e-06 0 0 0 0 0 0 1:20 2:14 3:4 4:1 5:14 6:14 7:8 8:30 
0 0 0 0 0.0005266981171472859 0 0.01302166960372926 0 0 0 1:13 2:20 3:3 4:4 5:33 6:35 7:7 8:13 
0 0 0 0 0 0 0 0 5.904336639000626e-06 0 1:12 2:17 3:8 4:15 5:10 6:13 7:21 8:18 
0 0.0005152686315602843 0 0 0 0 0 0 0 0 1:2 2:12 3:21 4:17 5:19 6:34 7:33 8:4 
0 0 3.22491267532349e-05 0 0 0 0 0 0 0 1:6 2:6 3:22 4:8 5:14 6:22 7:15 8:0 
0 0 0 0 0 0 0 0 1.927798575084241e-05 0 1:10 2:13 3:16 4:4 5:7 6:16 7:18 8:17 
0 0.0008956849514730531 0.0009267345364101768 0 0.009780317611798019 0 0.001095700767520394 0 0 0 1:8 2:19 3:8 4:23 5:13 6:35 7:1 8:24 
0 0 2.125031025575009e-06 0 0 0 0 0 0 0 1:1 2:10 3:23 4:2 5:15 6:29 7:2 8:3 
0 1.291873787852665e-05 4.590608133876564e-05 0 0 0 0 0 0 0 1:16 2:4 3:4 4:26 5:22 6:29 7:8 8:29 
0 0 0 0 0 0 0 0 0.0008807323924429713 0 1:2 2:2 3:24 4:8 5:12 6:13 7:27 8:20 
0 0.001793267973780635 0.005398453761045746 0 0 0 0 0 0 0 1:23 2:13 3:4 4:24 5:29 6:35 7:13 8:29 
0 0 0 0 0 0 0 0 0.0005290735636514065 0.04116137978002293 1:12 2:3 3:16 4:10 5:14 6:12 7:16 8:9 
0 0 1.251980486615855e-06 0 0 0 0 0 0 0 1:6 2:1 3:7 4:0 5:21 6:22 7:23 8:1 
0 0 0 0 0 0 0 0 0.01257823152870229 0 1:7 2:14 3:25 4:10 5:30 6:25 7:7 8:0 
0 0 0.00140569870681183 0 0 0 0 0 0 0 1:22 2:2 3:13 4:0 5:25 6:31 7:1 8:14 
0 0 0 0.0004259321983688393 0 0 0 0 0 0 1:2 2:20 3:7 4:22 5:13 6:21 7:21 8:35 
0 4.715360529752863e-05 0 0 0 0 0 0 0 0 1:23 2:20 3:8 4:6 5:20 6:30 7:0 8:18 
0 0 0.0001883491566642545 0 0 0 0 0 0 0 1:12 2:12 3:17 4:11 5:0 6:30 7:17 8:18 
0 1.540152979211519e-05 0 0 0 0 0 0 0 0 1:21 2:14 3:11 4:3 5:8 6:28 7:21 8:24 
0 2.967800863671941e-06 4.902902795862276e-05 0 0.0008571340908653611 0 0 0 0 0 1:9 2:1 3:12 4:8 5:21 6:32 7:25 8:24 
0 0.001325211544075533 0 0 0 0.004944438318776988 0 0 0 0 1:1 2:4 3:20 4:1 5:35 6:0 7:3 8:0 
0 0 0 0 0 0 6.790443729756434e-05 0 0 0 1:9 2:4 3:2 4:5 5:7 6:24 7:31 8:5 
0 0 0 0 0 0.0001819353697813943 0 0 0 0 1:4 2:9 3:0 4:14 5:19 6:1 7:19 8:25 
0 1.800655291018599e-05 0.0002037779508205689 0 0 0 0 0 0 0 1:26 2:4 3:9 4:5 5:31 6:33 7:22 8:31 
0 0 0.0001654191468864825 0 0 0 0 0 0 0 1:12 2:11 3:12 4:25 5:4 6:33 7:24 8:33 
0 0 0.004828216292541712 0 0 0 0.0101646992344499 0 0 0 1:13 2:18 3:5 4:8 5:12 6:35 7:29 8:21 
0 0 0 5.505089566681851e-06 0 0 0 0 0 0 1:5 2:9 3:25 4:8 5:21 6:23 7:11 8:27 
0 0 0 0.0001812601229303623 0 0 0 0 0 0 1:6 2:13 3:24 4:1 5:23 6:27 7:26 8:25 
0 0.0001204470116973287 0 0 0 0 0 0 0 0 1:7 2:22 3:1 4:11 5:15 6:14 7:2 8:29 
0 7.873246541009908e-06 0 0.000928234062728346 0 0 0 0 0 0 1:5 2:20 3:0 4:6 5:34 6:21 7:8 8:9 
0 0 1.444875774599715e-05 0 0 0 0 0 0 0 1:9 2:9 3:6 4:18 5:16 6:34 7:25 8:32 
0 0 0 7.428160610846748e-05 0 0 0 0 0 0.006741723395715855 1:19 2:6 3:9 4:1 5:7 6:11 7:11 8:31 
0 0 0 0 0 0 0 0 0.01380386217405754 0 1:14 2:5 3:14 4:10 5:33 6:16 7:1 8:1 
0 0.002604014424221208 0.0002011180068320184 0 1.21972262404284e-05 0 0.0001938801462432941 0 0 0 1:16 2:17 3:6 4:18 5:11 6:34 7:4 8:29 
0 0 0 0.0007956767238406522 0 0 0 0 0 0 1:0 2:4 3:7 4:30 5:13 6:13 7:10 8:31 
0.01568100411548859 0 0 0 0 0 0 0 0 0 1:7 2:1 3:19 4:23 5:10 6:7 7:8 8:28 
0.003174281971677748 0 0 0 0 0 0 0 0 0 1:2 2:13 3:21 4:17 5:7 6:5 7:1 8:5 
0 0 0.001055293661621449 0 5.752032257311314e-05 0 0.004968451692490481 0 0 0 1:12 2:11 3:5 4:17 5:25 6:30 7:4 8:35 
0.01058877168385874 0 0 0 0 0 0 0 0 0 1:0 2:16 3:10 4:3 5:31 6:7 7:4 8:17 
0 0 0 0 0.02166823290182418 0 0.003022636008838678 0 0 0 1:3 2:1 3:0 4:21 5:1 6:35 7:3 8:21 
0 0 0 0 0 0 9.671536727589923e-05 0 0 0 1:0 2:3 3:2 4:12 5:1 6:26 7:25 8:20 
0 0 0 2.38300380515845e-06 0 0 0 0 0 0 1:15 2:14 3:7 4:6 5:20 6:21 7:19 8:25 
0 0 0 0 0 0 0.0003621232188376007 0 0 0 1:6 2:1 3:20 4:5 5:6 6:34 7:4 8:32 
0 0 0 0 0 0 0 0 0 0.02856719179663334 1:20 2:11 3:23 4:30 5:14 6:17 7:15 8:24 
0 0 0 0 0 0 2.505643761394349e-05 0 0 0 1:14 2:0 3:18 4:7 5:9 6:31 7:4 8:28 
0 0 7.838403910445113e-06 0 0 0 5.903397137075852e-07 0 0 0 1:6 2:10 3:21 4:0 5:14 6:31 7:16 8:14 
0 0 2.710926401718358e-05 0 0 0 0 0 0 0 1:1 2:7 3:7 4:17 5:18 6:26 7:20 8:29 
0.0008252890184720253 0 0 0 0 0 0 0 0 0 1:9 2:20 3:24 4:23 5:27 6:14 7:29 8:35 
0 0 0 0 0 0 0 0 0 0.002565157960687968 1:1 2:2 3:24 4:6 5:2 6:13 7:19 8:28 
0 0 0 0 0 0 0 0 0.0006008134225968059 0 1:11 2:4 3:1 4:23 5:1 6:9 7:18 8:8 
0 0 4.034076222453997e-06 0 0 0 0.0001106860842055003 0 0 0 1:4 2:16 3:14 4:7 5:4 6:34 7:12 8:13 
0 0 0 0 0.000256701673524949 0 0 0 0 0 1:7 2:17 3:5 4:19 5:16 6:34 7:23 8:12 
0 0 3.002840525808954e-06 0 0 0 0 0 0 0 1:26 2:0 3:13 4:10 5:24 6:30 7:8 8:19 
0 0 0.0001871476794047635 0 0 0 0 0 0 0 1:10 2:4 3:21 4:14 5:8 6:29 7:20 8:27 
0 0 0 0 0 0 0 0 0 0.1366814230275451 1:8 2:13 3:16 4:20 5:18 6:13 7:3 8:18 
0 0 0 0.0204055477267246 0 0 0.001076089660308182 0 0.007506421967477664 0 1:7 2:12 3:13 4:1 5:29 6:17 7:8 8:35 
0 0.9566858444374081 1 1 0.0007539855489812108 0 0.07562938736207291 0 1 0 1:4 2:4 3:7 4:6 5:4 6:12 7:10 8:7 
0 0 0 0 0 0 0 0 0 0.005840570264804581 1:3 2:9 3:4 4:11 5:2 6:3 7:28 8:6 
0 3.985573574391018e-05 0.003452951423353144 0 0 0 0 0 0 0 1:1 2:5 3:17 4:22 5:13 6:31 7:23 8:34 
0 0.0002028236656223201 0.0002268212686021343 0 0 0 0.008679460401329402 0 0 0 1:20 2:6 3:6 4:0 5:9 6:28 7:24 8:33 
1 0.02799809109212268 0.02258304541942903 0.01150613376938471 0 0.2148296140001919 0.04231439562320857 0 1 0.6253698071448418 1:2 2:9 3:3 4:17 5:1 6:4 7:2 8:17 
0 5.81474717618028e-06 0 0 0 0 0 0 0 0 1:18 2:17 3:7 4:1 5:18 6:29 7:20 8:6 
0 0 0 0 0 0 0 0 0 0.001384319131817333 1:9 2:12 3:20 4:27 5:27 6:18 7:9 8:21 
0 0 0 0 0 0 0 0 0 9.474170518294518e-05 1:15 2:7 3:9 4:11 5:17 6:11 7:28 8:3 
0.002124751588852256 0 0 0 0 0 0 0 0 0 1:4 2:15 3:9 4:11 5:3 6:2 7:6 8:6 
0 0 0 0 0 0 0 0 0.0003274896381787521 0 1:4 2:14 3:17 4:16 5:0 6:16 7:3 8:6 
0 7.005120817396482e-06 0.001453975345811521 0 0 0 0 0 0 0 1:14 2:16 3:9 4:0 5:14 6:28 7:29 8:8 
0.000101344730741625 0 0 0 0 0 0 0 0 0 1:13 2:20 3:7 4:14 5:10 6:7 7:8 8:16 
0 0 0.001678515247244734 0 0.02708056152403796 0 0.05752362310650211 0.0004194938284693044 0 0 1:7 2:7 3:15 4:28 5:5 6:35 7:11 8:31 
0 0 0.0008170833183321065 0 0.01831526488094952 0 0.003082040896594274 2.127244438297326e-05 0 0 1:8 2:1 3:5 4:25 5:10 6:35 7:17 8:23 
0 8.623662767291455e-07 0 0 0 0 0 0 0 0 1:16 2:9 3:19 4:26 5:6 6:30 7:12 8:16 
0 0 0.00219173909943831 0 0 0 0 0 0 0 1:7 2:26 3:16 4:0 5:7 6:30 7:16 8:4 
0.01595625706542384 0 0 0 0 0 0 0 0 0 1:0 2:18 3:14 4:6 5:24 6:6 7:21 8:0 
0 0.001378973705809704 1.142091049277927e-06 0 0.1802687179559521 0 1.468490869493466e-06 0 0 0 1:9 2:10 3:3 4:7 5:10 6:31 7:15 8:2 
0 0 0 0 0 0 0 0 0 3.896955801813335e-05 1:8 2:10 3:16 4:16 5:14 6:9 7:10 8:1 
0 2.519517593119046e-07 1.297837725699651e-06 0 0 0 0.0001244885185474868 0 0 0 1:15 2:9 3:19 4:15 5:4 6:35 7:8 8:18 
0 0 0 4.398753896456093e-07 0 0 0 0 0 0 1:11 2:13 3:11 4:9 5:17 6:19 7:3 8:27 
0 3.253493002166983e-06 0 0 0 0 0 0 0 0 1:23 2:3 3:22 4:24 5:19 6:35 7:14 8:7 
0 1.175257030190711e-06 0.0001111977750164255 0 0 0 0.00552454912203313 0 0 0 1:10 2:9 3:3 4:24 5:22 6:29 7:1 8:1 
0 0 0.0001229359331695837 4.622280180947502e-06 0 0 0 0 0 0 1:5 2:2 3:2 4:9 5:13 6:14 7:21 8:3 
0 0 0 0 0 0 0 0 0.0002032218007357114 0 1:15 2:11 3:18 4:17 5:16 6:18 7:18 8:19 
0 0.002368910197275315 0.002531675224466178 0 0 0 0 0 0 0 1:15 2:5 3:9 4:25 5:29 6:35 7:7 8:29 
0.02274152593411389 0 0 0 0 0 0 0 0 0 1:1 2:0 3:10 4:8 5:24 6:2 7:19 8:1 
0 0.0006267748512851252 0 0.008804097479971873 0.001825088937919264 0.06728626415607766 0 6.794888287839124e-07 0.02693378532402982 0 1:3 2:0 3:20 4:1 5:22 6:0 7:4 8:35 
0 5.262879687261543e-06 0 0 0 0 0 0 0 0 1:2 2:22 3:13 4:15 5:16 6:31 7:29 8:17 
0.000272789357090751 0 0 0 0 0 0 0 0 0 1:6 2:9 3:21 4:16 5:1 6:6 7:19 8:11 
0 0 0 0 0 0 0 0 0.004566453926496867 0 1:4 2:16 3:17 4:9 5:6 6:18 7:28 8:24 
0 0.0009392310063309919 0.00634065229927257 0 0 0 0.01186329232987184 0 0 0 1:25 2:2 3:0 4:14 5:23 6:34 7:24 8:35 
0 0 0 0.00953015045638784 0 0 0 0 0 0 1:9 2:24 3:5 4:18 5:28 6:19 7:8 8:1 
0 0 0 0 0 0 0.00575162035730676 0 0 0 1:21 2:7 3:0 4:15 5:16 6:35 7:26 8:0 
0 0 0.000341466952339582 0 0 0 0 0 0 0 1:23 2:1 3:5 4:7 5:17 6:1 7:9 8:6 
0 0 0.0001629841443542191 0 0 0 0 0 0 0 1:3 2:11 3:8 4:25 5:25 6:34 7:16 8:2 
0 1.551372298641139e-06 0 0 0 0 0 0 0 0 1:2 2:16 3:3 4:10 5:29 6:28 7:21 8:26 
0 0 0 0.0001066673552396613 0 0 0 0 0 0 1:14 2:16 3:0 4:10 5:16 6:11 7:21 8:4 
0 0.001809372076366459 0.0003379979094073601 0 0 0 0 0 0 0 1:13 2:12 3:16 4:28 5:10 6:34 7:11 8:30 
0 0.0002251901024914648 0 0 0 0 0 0 0 0 1:5 2:3 3:29 4:24 5:17 6:35 7:16 8:7 
3.829410069665194e-07 0 0 0 0 0 0 0 0 0 1:4 2:3 3:9 4:6 5:17 6:8 7:28 8:25 
0 0 0 0.001555635329937934 0 0 0 0 0 0 1:15 2:4 3:2 4:29 5:34 6:28 7:18 8:1 
0 0 0 0.0001131557974203557 0 0 0 0 0 0 1:11 2:8 3:23 4:6 5:20 6:26 7:26 8:30 
0 0 0 0 0 0.0006460546403874109 0 0 0 0 1:23 2:10 3:9 4:2 5:10 6:2 7:14 8:28 
0 1.270749671661763e-06 0 0 0 0 0 0 0 0 1:10 2:6 3:8 4:25 5:7 6:29 7:16 8:13 
0 0 0 0 0 0 1.358930516982261e-05 0 0 0 1:12 2:20 3:4 4:10 5:7 6:34 7:27 8:9 
0 0 2.721924028247345e-05 0 0 0 0 0 0 0 1:4 2:25 3:5 4:15 5:20 6:34 7:4 8:3 
0 0.004958887189883653 1.321985439338442e-05 0 0.005300962332488932 0 0.03524138304761439 0 0 0 1:4 2:1 3:2 4:6 5:1 6:19 7:5 8:33 
0 0.002073537944987472 0 0 0 0 0 0 0 0 1:19 2:11 3:3 4:31 5:4 6:6 7:1 8:1 
0 1.030237727866286e-05 0 0 0 0 0 0 0 0 1:4 2:21 3:2 4:16 5:18 6:14 7:6 8:20 
0 0.0005914196189332959 3.383102588075177e-05 0.0003857606029405652 0 0 0 0 0 0 1:5 2:10 3:9 4:21 5:0 6:16 7:1 8:7 
0.0009009561578579361 0 0 0 0 0 0 0 0 0 1:5 2:9 3:5 4:1 5:24 6:6 7:19 8:16 
0 0.007721889093341589 0.00746543991811409 0 0 0 0 0 0 0 1:17 2:4 3:3 4:32 5:23 6:35 7:3 8:28 
0 0 0 0 0 0 7.585306103235511e-06 0 0 0 1:7 2:4 3:12 4:12 5:31 6:28 7:1 8:3 
0.0001552934513803532 0 0 0 0 0 0 0 0 0 1:18 2:6 3:19 4:10 5:4 6:7 7:13 8:0 
0 0 0 0 0 0.003266320201568783 0 0 0 0 1:15 2:1 3:10 4:2 5:30 6:0 7:10 8:23 
0 0.0005742406152535698 0 0 0 0 0 0 0 0 1:4 2:10 3:30 4:24 5:31 6:34 7:12 8:35 
0 0 0.0008783202583001988 0.004728765857735648 0 0.007594803813879781 0 0 0 0 1:3 2:7 3:2 4:18 5:3 6:2 7:24 8:29 
0 0 0 1.001004392120034e-05 0 0 0 0 0 0 1:16 2:4 3:14 4:21 5:12 6:14 7:0 8:28 
0 0 0 0 0 0.05275761014959052 0 0 0 0 1:12 2:4 3:18 4:27 5:4 6:2 7:11 8:27 
0 0 0 0 0 0.005304274166843011 0 0 0 0 1:18 2:12 3:6 4:1 5:29 6:3 7:5 8:29 
0 2.705342824568321e-06 0 0 0 0 0 0 0 0 1:22 2:3 3:13 4:8 5:27 6:26 7:23 8:0 
0 1.747910359335816e-06 0 0 0 0 0 0 0 0 1:13 2:8 3:15 4:5 5:25 6:25 7:8 8:0 
0 0.002809862272611705 0 0 0 0 0 0 0 0 1:2 2:34 3:8 4:4 5:34 6:34 7:9 8:30 
0 0 0 7.678429065681034e-07 0 0 0 0 0 0 1:21 2:5 3:7 4:9 5:24 6:13 7:4 8:22 
0 3.501535550846144e-05 0 0 0 0 0 0 0.0009056606662272375 0.01178342149269149 1:18 2:10 3:0 4:21 5:5 6:11 7:18 8:25 
0 7.584412029670336e-05 0 0 0 0 0 0 0 0 1:1 2:3 3:21 4:13 5:23 6:32 7:18 8:23 
0 1.503904575974851e-05 0 0 0 0 0 0 0 0 1:0 2:5 3:23 4:19 5:8 6:30 7:16 8:21 
0.008541672379580409 0 0 0 0 0 0 0 0 0 1:10 2:8 3:9 4:25 5:12 6:10 7:13 8:34 
0 5.58466225429805e-05 0 0 0 0 0 0 0 0 1:17 2:24 3:13 4:15 5:27 6:33 7:2 8:34 
0 0 1.476313067881488e-06 0 0 0 0 0 0 0 1:7 2:21 3:4 4:27 5:6 6:26 7:1 8:5 
0 7.315458509822576e-07 0.0004245171508808211 0 0 0 0 0 0 0 1:12 2:16 3:1 4:23 5:6 6:22 7:3 8:20 
0.00067627515176051 0 0 0 0 0 0 0 0 0.003396553454952387 1:1 2:14 3:16 4:1 5:8 6:10 7:18 8:25 
0.005980954613068873 0 0 0 0 0 0 0 0 0 1:16 2:18 3:1 4:23 5:15 6:7 7:5 8:14 
0 0 0 0.0003667018618001148 0 0 0 0 0 0 1:3 2:4 3:3 4:0 5:27 6:25 7:15 8:13 
0 8.380740584615264e-05 0 0 0 0 0 0 0 0 1:10 2:19 3:11 4:0 5:29 6:22 7:2 8:1 
0 0 0.0002759132943507939 0 0 0 0.0002449582248352528 0 0 0 1:0 2:14 3:18 4:27 5:10 6:34 7:14 8:23 
0 0 0 0 0 0 0 0 0 0.05564103166377642 1:14 2:11 3:10 4:20 5:7 6:10 7:21 8:5 
0 0 0 0 0 0 0 0 0.001054693912831993 0 1:11 2:21 3:0 4:2 5:11 6:10 7:16 8:35 
0 0 0 0.003183678745870468 0 0 0 0 0 0 1:11 2:7 3:2 4:0 5:32 6:17 7:11 8:12 
0 0 0 4.877092651662862e-07 0 0 0 0 0 0 1:12 2:15 3:9 4:18 5:10 6:23 7:15 8:17 
0 0 7.61102209186275e-07 0 0 0 0 0 0 0 1:1 2:17 3:17 4:3 5:7 6:34 7:13 8:10 
0 0 0 0 0 0 0 0 0.03716675291184617 0 1:10 2:6 3:19 4:20 5:3 6:16 7:15 8:4 
0 0.003659082313282318 0.05253856966589874 0 0 0 0 0 0 0 1:2 2:9 3:0 4:3 5:10 6:23 7:2 8:2 
0.0002456791227772787 0 0 0 0 0 0 0 0 0 1:1 2:17 3:16 4:5 5:21 6:5 7:15 8:7 
0 7.175356036744185e-06 0 0 0 0 0 0 0 0 1:5 2:12 3:22 4:13 5:5 6:30 7:16 8:29 
0.02762939889354265 0.0001960278449047299 0 1.145572629623351e-06 0 0 0 0 0 0.0002134218740731305 1:1 2:11 3:2 4:9 5:29 6:9 7:4 8:13 
0 0 0 0.006336325694536181 0 0 0 0 0 0 1:1 2:16 3:24 4:0 5:25 6:25 7:18 8:24 
0.006411098048995225 0 0 0 0 0 0 0 0 0 1:14 2:16 3:2 4:11 5:24 6:4 7:8 8:33 
0.008094258888358203 0 0 0 0 0 0 0 0 0 1:6 2:13 3:14 4:2 5:22 6:8 7:1 8:11 
0 0 0 0 0.0001289560797025408 0 1.111673452110163e-05 0 0 0 1:6 2:17 3:7 4:15 5:28 6:32 7:3 8:21 
0 0 0 0 0 0 0.001546123089269042 0 0 0 1:0 2:0 3:16 4:26 5:1 6:32 7:18 8:4 
0 0 0 0 0 0 0 0 0 0.004903414720630249 1:1 2:6 3:25 4:6 5:17 6:12 7:12 8:23 
0 0 0 0.00291443365529354 0 0 0 0 0 0 1:1 2:21 3:12 4:13 5:10 6:25 7:22 8:30 
0 0.0002643451934389275 0 0 0 0 0 0 0 0 1:0 2:15 3:16 4:15 5:17 6:26 7:30 8:33 
0 0.001243836571146675 0.01191088818817422 0 0 0 0 0 0 0 1:1 2:21 3:15 4:15 5:28 6:32 7:18 8:33 
0 0 0 0 0 0 0 0 0.002069992814974226 0 1:14 2:10 3:22 4:19 5:13 6:21 7:30 8:23 
0 0 0 0 0 0 0.002825509255814215 0 0 0 1:21 2:4 3:12 4:30 5:2 6:33 7:11 8:28 
0 0 0 0 0 0 0 0 0 0.09281800449469182 1:14 2:16 3:3 4:20 5:11 6:10 7:5 8:16 
0 0 0 0 0 0.02529835439667051 0 0 0 0 1:15 2:10 3:10 4:22 5:9 6:3 7:12 8:16 
0 0 0 0 0 0.0003041639785226927 0 0 0 0 1:4 2:13 3:16 4:19 5:11 6:1 7:15 8:25 
0 2.545419278881685e-07 0 0 0 0 0 0 0 0 1:14 2:14 3:20 4:18 5:7 6:33 7:19 8:10 
0.0005124714849605825 0 0 0 0 0 0 0 0 0 1:1 2:17 3:17 4:9 5:0 6:7 7:15 8:31 
0 6.111877076091968e-05 0 0 0 0 0 0 0 0 1:4 2:6 3:24 4:19 5:22 6:28 7:23 8:2 
0 1.823922767325937e-05 0 0 0 0 0 0 0 0 1:10 2:21 3:9 4:19 5:31 6:25 7:13 8:2 
0 0 0.0002129622622058606 0 0 0 0.000481318958243341 0 0 0 1:19 2:0 3:11 4:26 5:19 6:34 7:22 8:11 
0 0 0 1.477255827932905e-06 0 0 0 0 0 0 1:19 2:13 3:6 4:16 5:10 6:17 7:12 8:1 
0 0.0005419609935362909 0.003325480407580996 0 0.06363582296895638 0 0.002333257635755116 0 0 0 1:2 2:4 3:10 4:19 5:4 6:27 7:2 8:9 
0 0.001861890565067592 0.0003129693714623061 0 0 0 6.45860491364529e-05 0 0 0 1:1 2:6 3:21 4:18 5:9 6:29 7:8 8:33 
0 3.86403721326086e-08 0 0 0 0 0 0 0 0 1:0 2:19 3:12 4:14 5:15 6:20 7:24 8:26 
0 2.510995161134063e-05 0 0.01117328864705856 0 0 0 0 0 0 1:11 2:1 3:13 4:35 5:3 6:21 7:3 8:18 
0 6.750521044089806e-06 0.0001617424515291461 0 0 0 2.827658743804221e-07 0 0 0 1:16 2:2 3:6 4:17 5:25 6:31 7:13 8:8 
0 1.912615479590066e-05 1.066254997115615e-06 0 0 0 0 0 0 0 1:21 2:3 3:2 4:7 5:15 6:27 7:22 8:17 
0 0.003432343656299786 0 0 0 0 0 0 0 0 1:1 2:26 3:6 4:0 5:29 6:33 7:27 8:4 
0 0 0 0 0 0 0 0 3.619052382650999e-06 0 1:11 2:10 3:16 4:26 5:20 6:17 7:19 8:21 
0 0.0004179253061920785 0 0.0005082222911928089 0 0 0 0 0.000182766599261794 0 1:2 2:18 3:1 4:3 5:31 6:11 7:4 8:5 
0 0 0.001178608396363697 0 0.01275499233935555 0 0.001204355842957579 1.063353571330895e-05 0 0 1:15 2:15 3:0 4:5 5:7 6:34 7:19 8:10 
0 2.950381803571315e-05 0.006117920115897571 0 0.004217159858424556 0 0.003436508941978125 0 0 0 1:13 2:18 3:0 4:9 5:26 6:35 7:17 8:6 
8.589558187021407e-05 0 0 0 0 0 0 0 0 0 1:18 2:9 3:16 4:8 5:21 6:8 7:19 8:25 
0 1.09197142261425e-05 0 0 0 0 0 0 0 0 1:10 2:21 3:10 4:3 5:16 6:30 7:5 8:29 
0 0 0.000215189028341973 0 0 0 3.640959526581948e-05 0 0 0 1:12 2:0 3:3 4:16 5:18 6:28 7:25 8:11 
0 0 0 8.721414013577234e-05 0 0 0 0 0 0 1:11 2:3 3:20 4:2 5:24 6:20 7:12 8:32 
0 0.000142833072664692 0 0 0 0 0 0 0 0 1:10 2:15 3:2 4:16 5:35 6:34 7:16 8:20 
0.005292715208686422 0 0 0 0 0 0 0 0 0 1:5 2:11 3:32 4:0 5:10 6:13 7:5 8:11 
0.1132033276384899 0 0 0 0 0 0 0 0 0 1:3 2:6 3:20 4:1 5:11 6:7 7:15 8:8 
0 0 0 0 0 0.1303107810547937 0 0 0 0 1:20 2:5 3:7 4:9 5:0 6:2 7:23 8:16 
0.02157488544795684 0 0 0 0 0 0 0 0 0 1:3 2:1 3:25 4:1 5:35 6:11 7:15 8:8 
0 0 0 0.003979534345758096 0 0 0 0 0 0 1:6 2:3 3:0 4:22 5:29 6:26 7:22 8:21 
0 1.184939423592156e-05 0 0 0 0 0 0 0 0 1:11 2:5 3:25 4:1 5:12 6:33 7:17 8:11 
0 0 0 0.00516534896174719 0 0 0 0 0 0 1:13 2:25 3:0 4:15 5:24 6:25 7:21 8:0 
0.001560598211058284 0 0 0 0 0 0 0 0 0 1:10 2:1 3:15 4:0 5:19 6:7 7:26 8:22 
0 0.001395246502487261 6.68350153039391e-06 0 0 0 1.84299854991411e-07 0 0 0 1:10 2:2 3:15 4:30 5:12 6:26 7:3 8:3 
0 0 0 0 0 0.1949717731746546 0 0 0 0 1:16 2:7 3:11 4:2 5:5 6:0 7:14 8:7 
0 0 0 0.006171524428032532 0 0 0 0 0.009403245451570653 0 1:0 2:14 3:18 4:20 5:10 6:20 7:10 8:1 
0 0 0 7.612000074165181e-05 0 0 0 0 0 0 1:11 2:8 3:11 4:4 5:29 6:18 7:17 8:0 
0 0 0 0.0009822534957761395 0 0 0 0 0 0 1:23 2:22 3:3 4:20 5:17 6:11 7:0 8:2 
0 0 0 0.0003128140966836145 0 0 0 0 0 0.009554374582002242 1:7 2:5 3:19 4:3 5:24 6:13 7:0 8:23 
0 0 0 0 0 0 0 0 0.0395608274231793 0 1:0 2:16 3:2 4:21 5:27 6:17 7:8 8:9 
0 0 0 0 0 0 0.001231973645016196 0 0 0 1:22 2:1 3:11 4:22 5:3 6:32 7:8 8:34 
0 0.0009405031577833735 0.0095503015245639 0.00103070119274383 0 0 0.001145063019664111 0 0 0 1:17 2:5 3:8 4:35 5:16 6:33 7:7 8:35 
0 0.01709784399171072 9.096931075085695e-05 0 0 0 6.407825968267809e-05 0 0 0 1:21 2:8 3:8 4:1 5:16 6:33 7:23 8:15 
0 0.004604820478337899 0 0 0 0 0 0 0 0 1:8 2:7 3:17 4:15 5:1 6:23 7:17 8:1 
0 2.586391498975902e-06 0 3.361780981284175e-05 0 0 0 0 0 0 1:11 2:18 3:6 4:29 5:19 6:17 7:6 8:0 
0 0 0 0 0 0 0 0 0.00958140694823793 0 1:17 2:16 3:0 4:14 5:0 6:9 7:12 8:22 
0 0 0 0 0 0 0 0 0.003198312969113361 0 1:3 2:14 3:20 4:18 5:10 6:18 7:25 8:26 
0 0 0 0 0 0.02984682037972313 0 0 0 0 1:6 2:13 3:14 4:17 5:21 6:3 7:8 8:3 
0 2.123931764274076e-05 0 0 0.004236414755330302 0 0 0 0 0 1:1 2:20 3:4 4:7 5:16 6:31 7:3 8:22 
0 1.629444999896016e-06 0 1.684941405577005e-05 0 0 0 0 0 0 1:12 2:13 3:8 4:27 5:4 6:19 7:17 8:22 
0 0.001158335406369541 9.791779026984301e-06 0.009383051050522067 0 0 0 0 0 0 1:10 2:4 3:14 4:30 5:1 6:21 7:0 8:18 
0 5.536405486645247e-06 0 0 0 0 0 0 0 0 1:20 2:18 3:5 4:25 5:25 6:31 7:7 8:31 
0 7.674519362437217e-06 0.0007849013542816323 0 5.733603297424711e-06 0 4.495979353553783e-05 0 0 0 1:5 2:18 3:4 4:3 5:15 6:28 7:23 8:1 
0 0 0 0 0 0 0 0 0.01042634590151972 0 1:0 2:5 3:0 4:6 5:17 6:15 7:25 8:17 
0 0 0 0 0 0 0.0002387035753485374 0 0 0 1:4 2:20 3:7 4:24 5:10 6:35 7:23 8:24 
0.001320911910601912 0 0 0 0 0 0 0 0 0 1:3 2:0 3:22 4:2 5:27 6:5 7:14 8:4 
0 0.001227815796259029 0 0 0 0 0 0 0 0 1:21 2:9 3:10 4:2 5:28 6:35 7:32 8:3 
0 0 0 0 0 0 0 0 0 0.03284983754311298 1:17 2:13 3:14 4:21 5:20 6:14 7:29 8:20 
0 0 2.452624852971424e-06 0 0 0 0 0 0 0 1:8 2:1 3:9 4:28 5:10 6:32 7:23 8:19 
0 3.190141020912999e-07 0.000833787340935931 0 0 0 0 0 0 0 1:12 2:9 3:9 4:7 5:26 6:32 7:28 8:1 
0 0 0.0008054085831254726 0.1000655369457435 0 0 0 0 0.6361638699851309 0 1:2 2:12 3:2 4:12 5:3 6:9 7:4 8:8 
0 0.0008988470424025091 0 0 0 0 0 0 0 0 1:27 2:3 3:19 4:9 5:34 6:35 7:23 8:9 
0 0 0.03493527837859872 0 0 0 0 0 0 0 1:8 2:20 3:6 4:29 5:26 6:35 7:16 8:31 
0 0 0 0.003018346833245164 0 0 0 0 0 0 1:21 2:2 3:3 4:33 5:34 6:35 7:4 8:26 
0 0 0 0.001190409805947941 0 0 0 0 0 0 1:0 2:0 3:30 4:30 5:31 6:34 7:6 8:35 
0 0 0 0.003945397373053743 0 0 0 0 0.007328692042430933 0 1:15 2:11 3:1 4:1 5:33 6:20 7:10 8:3 
0 0 0.0007260481213771111 0 0 0 0.002309975894863536 0 0 0 1:5 2:2 3:10 4:25 5:10 6:35 7:23 8:27 
0 1.716691833398183e-05 0 0 0 0 0 0 0 0 1:1 2:1 3:25 4:14 5:17 6:29 7:6 8:24 
0 6.696339997704704e-07 0 0 0 0 0 0 0 0 1:11 2:6 3:18 4:28 5:13 6:31 7:4 8:22 
0 0 0 4.07071011225086e-05 0 0 0 0 0 0 1:19 2:0 3:9 4:6 5:20 6:22 7:25 8:23 
0 0 0 0 0 0.01308595056603175 0 0 0 0 1:22 2:9 3:7 4:2 5:9 6:2 7:16 8:18 
0 0 0 0 0 0 0 0 0 0.09180837275231382 1:13 2:4 3:11 4:12 5:15 6:10 7:25 8:3 
0 0 0 0 0 0 0 0 0 3.429158641787939e-05 1:12 2:12 3:4 4:13 5:18 6:10 7:25 8:22 
0 2.771886729775707e-06 3.694231551496166e-05 0 0 0 0 0 0 0 1:22 2:9 3:0 4:2 5:22 6:29 7:13 8:17 
0 1.83198869997409e-06 0 0 0 0 0 0 0 0 1:12 2:11 3:19 4:30 5:5 6:27 7:9 8:17 
0 0 3.019184698006206e-06 0 0 0 0 0 0 0 1:12 2:1 3:17 4:19 5:14 6:23 7:11 8:8 
0 0.004312554186697883 0 0 0 0 0 0 0 0 1:2 2:6 3:4 4:10 5:31 6:35 7:9 8:20 
0 2.219732815626654e-05 0 0 0 0 0 0 0 0 1:19 2:7 3:9 4:29 5:9 6:29 7:9 8:21 
0 0 0 0 0 0 0.0313388314331046 0 0 0 1:18 2:0 3:2 4:33 5:17 6:35 7:15 8:7 
0 0.0002422716845898948 2.510610944250636e-07 0 0 0 0 0 0 0 1:13 2:1 3:15 4:16 5:21 6:30 7:20 8:18 
0 0 0 0 0 0 0.0002014503401559815 0 0 0 1:15 2:0 3:12 4:21 5:1 6:28 7:25 8:11 
0.0007221570205037614 0 0 0 0 0 0 0 0 0 1:16 2:3 3:13 4:26 5:15 6:7 7:11 8:13 
0 0 0 0.0006876530635788695 0 0 0 0 0 0 1:24 2:20 3:15 4:16 5:33 6:35 7:28 8:30 
0 2.181702897831713e-05 7.553939626165027e-07 0 0 0 0 0 0 0 1:11 2:12 3:15 4:4 5:10 6:28 7:15 8:15 
0 0 0 0.0002407695783945652 0 0 0 0 0 0.060488684490561 1:8 2:4 3:7 4:5 5:31 6:10 7:1 8:22 
0 1.068509484870332e-05 0 0.0806435973559535 0 0 0 0 0 0 1:14 2:4 3:0 4:7 5:30 6:19 7:7 8:1 
0 0 0 0 0 0.08440602339721383 0 0 0 0 1:11 2:9 3:3 4:20 5:21 6:2 7:12 8:6 
0 5.681359956876199e-07 0 0 0 0 0 0 0 0 1:15 2:11 3:15 4:26 5:0 6:26 7:10 8:19 
0 0.0002417069566537417 0 0 0 0 0 0 0 0.008276098486241456 1:0 2:14 3:5 4:14 5:31 6:13 7:4 8:2 
0 0.0007464776777438115 0 0 0 0 0 0 0 0 1:12 2:11 3:3 4:34 5:16 6:1 7:10 8:1 
0 1.135095076982436e-07 0 0 0 0 0 0 0 0 1:4 2:13 3:28 4:6 5:32 6:34 7:12 8:15 
0 0 0 0 0 0.003416731938420104 0 0 0 0 1:12 2:13 3:11 4:11 5:6 6:1 7:16 8:35 
0 0.0001907049329947558 0 0 0 0 0 0 0 0.09473611775774003 1:11 2:6 3:11 4:0 5:0 6:10 7:5 8:14 
0 0 0.0003954431728847835 0 0 0 0 0 0 0 1:14 2:1 3:19 4:21 5:13 6:31 7:26 8:25 
0 0.000325635762408383 0 0 4.177589724985184e-06 0 1.237476498052828e-06 0 0 0 1:5 2:2 3:4 4:5 5:9 6:31 7:19 8:3 
0 0 0 0.0003600119607200619 0 0 0 0 0 0 1:25 2:20 3:11 4:23 5:28 6:31 7:26 8:34 
0 0 0 0 0 5.515296395974647e-05 0 0 0 0 1:10 2:2 3:7 4:18 5:23 6:1 7:9 8:6 
0 0 0 0.0007345581339605963 0 0 0 0 0 0 1:23 2:0 3:13 4:14 5:21 6:20 7:22 8:7 
0 0 0 0 0 0.0002396468098640031 0 0 0 0 1:7 2:3 3:16 4:22 5:15 6:3 7:18 8:10 
0 0.0004384563312347957 0 0 0 0 4.614357866787124e-07 0 0 0 1:15 2:12 3:8 4:10 5:16 6:29 7:20 8:1 
0 0 0 0 0 0 0 0 0 0.001294033526860839 1:22 2:1 3:10 4:3 5:1 6:7 7:27 8:16 
0 4.799675801582052e-07 0 0.0003384711790254344 0 0 0 0 0 0 1:14 2:19 3:1 4:24 5:27 6:22 7:9 8:5 
0 2.625341715126881e-07 0 0 0 0 0.001564089395149567 0 0 0 1:19 2:7 3:4 4:13 5:19 6:25 7:5 8:34 
0 3.031492935492384e-06 0 0 0 0 0 0 0 0 1:0 2:3 3:31 4:21 5:16 6:29 7:17 8:12 
0 0 0 1.626448119085741e-06 0 0 0 0 0 0 1:4 2:2 3:14 4:28 5:21 6:27 7:4 8:18 
0.05638928384917754 0 0 0 0 0 0 0 0 0 1:1 2:1 3:12 4:25 5:2 6:5 7:20 8:29 
0 0 0 0.0004912017028817098 0 0 0 0 0 0 1:4 2:1 3:12 4:29 5:13 6:16 7:6 8:22 
0 0 0.0004018861870294408 0 0 0 0 0 0 0 1:18 2:23 3:2 4:12 5:26 6:35 7:19 8:35 
0 0.007073917065415587 0 0 0 0 0 0 0 0 1:17 2:9 3:19 4:18 5:31 6:35 7:29 8:35 
0 0.0001733269087918906 0 0 0 0 0 0 0 0 1:13 2:3 3:7 4:4 5:34 6:25 7:7 8:6 
0 0 0.001916840133500171 0 0 0 0 0 0 0 1:14 2:19 3:8 4:2 5:6 6:28 7:16 8:25 
0 0.001723672366719278 0 0 0 0 0 0 0 0 1:23 2:11 3:12 4:14 5:34 6:34 7:31 8:6 
0 1.391919833748008e-06 0 0 0 0 0 0 0 0 1:20 2:6 3:18 4:2 5:9 6:26 7:21 8:26 
0 0 0 0.003156707543111127 0 0 0 0 0 0 1:25 2:1 3:7 4:13 5:16 6:18 7:26 8:3 
0 0 0 0 0 0 1.006182705010358e-05 0 0 0 1:13 2:11 3:17 4:12 5:13 6:33 7:2 8:29 
0 0.0005738118550734206 0 0 0 0 0 0 0 0 1:17 2:4 3:5 4:14 5:33 6:31 7:7 8:1 
0 6.105039681005571e-06 0 0 0 0 0 0 0 0 1:20 2:6 3:10 4:1 5:9 6:24 7:24 8:16 
0 0 0 9.788976068579628e-06 0 0 0 0 0 0 1:7 2:6 3:8 4:14 5:1 6:12 7:33 8:25 
0 0 4.245625594184481e-05 0 0 0 0 0 0 0 1:2 2:0 3:19 4:22 5:9 6:25 7:26 8:10 
0 0 0 0 0 0.002645601775900615 0 0 0 0 1:19 2:9 3:0 4:18 5:18 6:4 7:12 8:9 
0 2.011583039398334e-05 0 0 0 0 0 0 0 0 1:23 2:7 3:23 4:17 5:21 6:35 7:22 8:21 
0 0.02221945923690617 0.02436823779720719 0 0.0845724039195417 0 0.08302379098624929 0.0001973457540804593 0 0 1:14 2:4 3:16 4:11 5:12 6:34 7:14 8:16 
0 0.0002437154330486471 0.002948611203548385 0 0 0 0 0 0 0 1:3 2:2 3:21 4:7 5:23 6:19 7:1 8:34 
0 0 0 0 0 0.04757465066912828 0 0 0 0 1:6 2:13 3:14 4:4 5:23 6:0 7:11 8:4 
0 0 6.302458928448835e-07 0 0 0 0 0 0 0 1:9 2:3 3:12 4:7 5:13 6:23 7:34 8:14 
0 0 0 0 0 0.01494349352633761 0 0 0 0 1:15 2:6 3:10 4:0 5:32 6:2 7:6 8:14 
0 0 0 0 0 0 0.0021037618672179 0 0 0 1:10 2:15 3:7 4:10 5:0 6:30 7:13 8:5 
0 0 0 0 0 0.01737090649888844 0 0 0 0 1:13 2:13 3:12 4:7 5:21 6:1 7:19 8:8 
0 0 0 0 0 0 0 0 0.006574926593907094 0 1:15 2:2 3:24 4:33 5:22 6:20 7:1 8:1 
0 0 0 0.005328748827707981 0 0 0 0 0 0 1:7 2:16 3:20 4:25 5:30 6:31 7:22 8:34 
0 0 0 0 0 0 0.002816206847474099 0 0 0 1:20 2:1 3:11 4:2 5:1 6:30 7:5 8:7 
0 0 1.49621103983173e-06 0 0 0 0 0 0 0 1:16 2:17 3:0 4:18 5:2 6:28 7:5 8:24 
4.973276990547775e-05 0 0 0 0 0 0 0 0 0 1:0 2:0 3:27 4:10 5:23 6:10 7:14 8:7 
0 8.609337710995123e-05 0 0 0 0 0 0 0 0 1:0 2:8 3:21 4:29 5:0 6:21 7:6 8:27 
0 0.003139770594732267 0 0 0 0 0 0 0 0 1:0 2:23 3:4 4:5 5:24 6:18 7:2 8:33 
0 0 0 0.001720559602733317 0 0 0 0 0.000203349934298542 0 1:17 2:7 3:16 4:13 5:9 6:19 7:23 8:13 
0 0.0004762640750933234 0 0 0.004976246198853009 0 0.002094573150957727 0 0 0 1:11 2:3 3:6 4:7 5:1 6:25 7:18 8:5 
0 0 0 0 0 0.007793198751221405 0 0 0 0.0228817189551561 1:9 2:0 3:6 4:4 5:22 6:6 7:26 8:5 
0 0.002723794750867929 0.006191249210647762 0 0 0 0.00630913595083212 0 0 0 1:25 2:5 3:8 4:2 5:27 6:34 7:28 8:33 
0.003140109521554714 0 0 0 0 0 0 0 0 0 1:4 2:7 3:10 4:27 5:4 6:10 7:15 8:27 
0 0 0 0.0003227315978857764 0 0 0 0 0 0 1:23 2:30 3:1 4:23 5:35 6:26 7:33 8:0 
0 9.614846633387285e-08 0 0 0 0 0 0 0 0 1:13 2:11 3:18 4:27 5:20 6:31 7:12 8:22 
0 2.370818160102483e-07 0 0 0 0 0 0 0 0 1:25 2:13 3:5 4:6 5:18 6:31 7:19 8:23 
0 0 0 0.007370992522085823 0 0 0 0 0 0 1:5 2:3 3:0 4:19 5:26 6:22 7:16 8:33 
0 2.226181713609235e-05 0 0 0 0 0 0 0 0 1:14 2:16 3:15 4:8 5:30 6:34 7:6 8:8 
0 1.425531342483038e-06 0 0 0 0 0 0 0 0 1:20 2:16 3:1 4:6 5:5 6:15 7:1 8:24 
0.1795495680775182 0 0 0 0 0 0 0 0 0 1:0 2:14 3:16 4:7 5:20 6:5 7:3 8:4 
0 2.556055464536173e-05 0 0.004561107359068302 0 0 0 0 0 0 1:19 2:7 3:7 4:28 5:20 6:18 7:0 8:0 
0 0.0002489188653660339 0 0 0 0 0 0 0 0 1:15 2:10 3:4 4:32 5:0 6:9 7:0 8:13 
0 0 0 3.646956038029863e-05 0 0 0 0 0 0 1:21 2:0 3:6 4:15 5:6 6:16 7:33 8:13 
0 0 0 0 0 0 0 0 0.003060204847874321 0 1:9 2:6 3:23 4:23 5:3 6:20 7:25 8:9 
0 7.812579016038394e-05 0 0 0 0 0 0 0 0 1:15 2:17 3:1 4:9 5:23 6:22 7:1 8:32 
0 0 0 0 0 0 0.0005754475816023263 0 0 0 1:6 2:22 3:8 4:10 5:18 6:34 7:24 8:27 
0 0 0 0 0.0006427882043531248 0 0.008102547192961497 0 0 0 1:2 2:5 3:5 4:12 5:1 6:22 7:14 8:12 
2.624977894636527e-05 0 0 0 0 0 0 0 0 0 1:14 2:18 3:20 4:21 5:23 6:9 7:28 8:27 
0 0 0 4.112309016145381e-05 0 0 0 0 0 0 1:7 2:7 3:16 4:1 5:17 6:22 7:25 8:8 
0 0.0004904559769436912 0 0 0 0 0 0 0 0 1:19 2:23 3:13 4:8 5:25 6:34 7:3 8:23 
0 1.326652243480957e-06 0 0 0 0 0 0 0 0 1:15 2:0 3:15 4:3 5:16 6:15 7:6 8:22 
0 0 0 0.001040595180610718 0 0 0 0 0.003040748994710591 0.006245473773971718 1:14 2:11 3:1 4:9 5:0 6:7 7:17 8:5 
0 0 0 0 0 0 0 0 0 0.003675137037481 1:12 2:7 3:26 4:21 5:21 6:16 7:30 8:29 
0 0.0005822914675218013 0.0001492657492168915 0.008054250921202898 0.03368262383265615 0 0.0007211816540796171 0 0 0 1:5 2:10 3:11 4:0 5:24 6:34 7:20 8:35 
0 0 0 0 0.0001756370991296317 0 0 0 0 0 1:8 2:8 3:4 4:0 5:6 6:30 7:0 8:6 
0.003291109684732137 0 0 0 0 0 0 0 0 0.009612659847942137 1:0 2:3 3:18 4:18 5:15 6:9 7:22 8:7 
0.05663023407216188 0 0 0 0 0.8706743688688942 0 0 0 0 1:6 2:8 3:11 4:7 5:6 6:2 7:1 8:21 
0 0.0004365204519334115 0 0 0 0 0 0 0 0 1:9 2:8 3:14 4:8 5:5 6:24 7:32 8:3 
0 5.674447049468249e-07 0 0 0 0 0 0 0 0 1:7 2:9 3:20 4:34 5:4 6:24 7:6 8:15 
0 2.792429707143033e-06 0 0 0 0 0 0 0 0 1:11 2:17 3:10 4:3 5:20 6:26 7:4 8:10 
0 0 0 0 0 0.004963846616461748 0 0 0 0 1:5 2:11 3:14 4:24 5:21 6:4 7:2 8:29 
0 0.0003221990606946619 0 0 0.01845510301027123 0 0.01639260329653262 0 0 0 1:1 2:1 3:24 4:4 5:21 6:35 7:13 8:35 
0 0 0.0004720726056926193 0 0 0 0 0 0 0 1:10 2:0 3:24 4:21 5:17 6:29 7:10 8:13 
0 0 0 0 0 0 0.008512768692944372 0 0 0 1:13 2:2 3:4 4:2 5:30 6:35 7:26 8:0 
0 0 9.369309066348365e-05 0.0003116837377957471 0 0 0 0 0 0 1:0 2:17 3:8 4:18 5:4 6:24 7:4 8:1 
0 4.881696684720842e-05 0 0 0 0 0 0 0 0 1:6 2:4 3:10 4:12 5:33 6:33 7:11 8:19 
6.83591001979803e-05 0 0 0 0 0 0 0 0 0 1:1 2:11 3:17 4:23 5:20 6:9 7:2 8:12 
0 0 0 0.0001955799934799794 0 0 0 0 0 0 1:15 2:21 3:2 4:15 5:28 6:20 7:18 8:2 
0 0 3.893506164816355e-07 0 0 0 0 0 0 0 1:9 2:18 3:4 4:3 5:23 6:28 7:21 8:21 
0 0 0 0 0 0.008099302849569289 0 0 0 0 1:5 2:14 3:14 4:9 5:27 6:1 7:12 8:2 
0 0 0.0004925076918108473 0 0 0 0 0 0 0 1:18 2:4 3:6 4:5 5:11 6:27 7:30 8:26 
0 0 0 0 0 0 0 0 0 0.02674906396280798 1:9 2:6 3:20 4:28 5:8 6:14 7:2 8:6 
0 0 5.759837619538818e-06 0 0 0 0 0 0 0 1:21 2:4 3:4 4:17 5:19 6:30 7:5 8:5 
0.01948642191787124 0 0 0 0 0 0 0 0 0 1:0 2:18 3:14 4:24 5:11 6:7 7:12 8:27 
0 0 0 5.213689853346505e-05 0 0 0 0 0 0 1:16 2:7 3:12 4:25 5:26 6:24 7:5 8:31 
0.01781690261313523 0 0 0 0 0 0 0 0 0 1:1 2:6 3:27 4:27 5:17 6:9 7:17 8:33 
0 0 0 0.003172129283665566 0 0 0 0 0 0 1:4 2:0 3:2 4:27 5:24 6:27 7:8 8:10 
0 0 0 0 0 0 0 0 0.002003276683957575 0 1:4 2:13 3:17 4:3 5:24 6:15 7:24 8:22 
0 1.143327042347697e-06 0 0 1.125575900655738e-05 0 2.008262927955465e-06 0 0 0 1:1 2:6 3:10 4:2 5:27 6:32 7:17 8:16 
0 1.85952514806091e-06 0 0 0 0 0 0 0 0 1:2 2:16 3:5 4:17 5:9 6:13 7:24 8:9 
0 0 0.0005268704503964997 0 0 0 0.006189771065282784 0 0 0 1:15 2:16 3:4 4:28 5:2 6:32 7:1 8:23 
1.98783890551512e-06 0 0 0 0 0 0 0 0 0.0003553346999466438 1:20 2:10 3:0 4:14 5:9 6:7 7:21 8:20 
0 0.000709094564609 0 0 0 0 0 0 0 0 1:16 2:9 3:9 4:19 5:22 6:30 7:18 8:0 
0 0.0001666844546208368 0 0 0 0 1.216375248500615e-06 0 0 0 1:10 2:16 3:11 4:11 5:23 6:30 7:9 8:23 
0 0 0.0003186313097360484 0 0 0 0 0 0 0 1:21 2:8 3:14 4:11 5:3 6:33 7:30 8:29 
0 0 0.004357637701626431 0 0 0 0 0 0 0 1:21 2:5 3:12 4:20 5:19 6:34 7:33 8:33 
0 0 0 0.01057502526059088 0 0 0 0 0 0 1:22 2:0 3:17 4:32 5:26 6:34 7:27 8:29 
0 0.005339213191750274 0 0 0 0 0 0 0 0 1:5 2:7 3:28 4:26 5:26 6:35 7:14 8:29 
0 0 0 0 0 0 0 0 0.0004322404535221717 0 1:7 2:0 3:21 4:22 5:18 6:12 7:5 8:4 
0 0 1.601686009073962e-05 0 0 0 0 0 0 0 1:9 2:1 3:17 4:19 5:25 6:31 7:18 8:10 
0 0 0 0 0 0.01816838389986733 0 0 0 0 1:4 2:16 3:7 4:22 5:21 6:0 7:0 8:1 
0 0 0 0 0 0 0.0005394339888578431 0 0 0 1:17 2:8 3:5 4:16 5:33 6:31 7:1 8:1 
0.01249214972087954 0 0 0 0 0 0 0 0 0 1:2 2:22 3:14 4:19 5:26 6:8 7:5 8:34 
0 0 4.990764548678059e-05 0 0 0 0 0 0 0 1:20 2:7 3:2 4:31 5:5 6:30 7:4 8:22 
0.000765730847643157 0 0 0 0 0 0 0 0 0 1:15 2:8 3:17 4:0 5:8 6:10 7:29 8:6 
0 0 0 0.01280405975173461 0 0 0 0 0 0 1:21 2:3 3:3 4:11 5:9 6:14 7:4 8:28 
0.0004446093637851171 0 0 0 0 0 0 0 0 0.0930055146230218 1:19 2:1 3:8 4:5 5:6 6:7 7:13 8:17 
0 0 0 0 0 0 0 0 0.002657417874058743 0 1:12 2:8 3:23 4:18 5:1 6:23 7:18 8:1 
0 0 0 0 0.0004975324574950067 0 5.24228334224672e-05 0 0 0 1:16 2:9 3:0 4:3 5:6 6:26 7:13 8:2 
0 3.563612660551323e-05 9.750599115420978e-06 0 0 0 0 0 0 0 1:4 2:6 3:21 4:22 5:9 6:28 7:0 8:4 
0 0 0.003873242327785803 0 0 0 0 0 0 0 1:0 2:20 3:7 4:32 5:20 6:29 7:13 8:35 
0 2.167107623128245e-08 0 0 0 0 0 0 0 0 1:11 2:17 3:15 4:4 5:27 6:35 7:34 8:18 
0 0 0.0004473122654142686 0 0 0 0 0 0 0 1:16 2:10 3:22 4:13 5:16 6:35 7:29 8:30 
0.009422724944551705 0 0 0 0 0 0 0 0 0 1:3 2:4 3:23 4:17 5:6 6:6 7:15 8:12 
0 2.466847630673205e-05 0 0 0 0 0 0 0 0 1:18 2:8 3:4 4:24 5:22 6:25 7:10 8:8 
0 0 0 1.056670127691015e-05 0 0 0 0 0 0 1:8 2:14 3:2 4:8 5:9 6:19 7:16 8:4 
0 0 7.313724887083593e-07 0 0 0 2.960840723544403e-06 0 0 0 1:16 2:6 3:12 4:9 5:2 6:29 7:23 8:12 
0 0 0 0.005342427271822195 0 0 0 0 0 0 1:12 2:19 3:17 4:2 5:30 6:31 7:24 8:35 
0 0 0 0 0 0 1.984397446501414e-05 0 0 0 1:12 2:5 3:0 4:19 5:6 6:24 7:21 8:1 
0.0002885648283865091 0 0 0 0 0 0 0 0 0 1:16 2:8 3:18 4:11 5:12 6:9 7:26 8:23 
0 0 1.148174846270193e-06 0.0001510852891251981 0 0 0 0 0 0 1:1 2:15 3:3 4:5 5:8 6:12 7:13 8:12 
0 0 0 4.93094374007793e-06 0 0 0 0 0 0 1:21 2:0 3:13 4:30 5:20 6:24 7:7 8:19 
0.006760319725405929 0 0 0 0 0 0 0 0 0 1:15 2:1 3:24 4:22 5:6 6:8 7:0 8:26 
0 2.988672444449097e-05 0 0 0 0 0 0 0 0 1:2 2:20 3:11 4:1 5:27 6:24 7:3 8:19 
0 1.621730427154385e-05 0 0 0 0 0 0 0 0 1:10 2:17 3:9 4:10 5:18 6:21 7:4 8:32 
0 0 0 0 0 0.002805990740519087 0 0 0 0 1:4 2:7 3:20 4:32 5:12 6:2 7:1 8:8 
0.005173663751901252 0 0 0 0 0 0 0 0 0 1:8 2:14 3:17 4:3 5:5 6:6 7:24 8:3 
0 0.0008261990369721725 0 0 0 0 0 0 0 0 1:14 2:13 3:10 4:0 5:1 6:22 7:12 8:35 
0 0 0 0.003586643258149874 0 0 0 0 0 0 1:13 2:4 3:17 4:17 5:7 6:22 7:26 8:29 
0 3.440943442629297e-05 0 0 0 0 0 0 0 0 1:22 2:2 3:8 4:1 5:10 6:21 7:30 8:5 
0 0.0001606956414774128 0.001784646073175743 0 0 0 0 0 0 0 1:3 2:21 3:2 4:13 5:29 6:35 7:8 8:4 
0 0 0 0 0 0 1.846645578251227e-06 0 0 0 1:4 2:15 3:5 4:20 5:3 6:26 7:23 8:11 
0 3.254745501060893e-07 0 0 0 0 0.0002610921812289933 0 0 0 1:14 2:14 3:6 4:2 5:29 6:31 7:4 8:25 
0 0 0 0.00351591708262064 0 0 0 0 0 0 1:19 2:1 3:13 4:17 5:14 6:20 7:15 8:21 
0 4.802991784256342e-06 0 0 0 0 0 0 0 0 1:5 2:3 3:24 4:0 5:9 6:30 7:14 8:23 
0 0 0 0 0.003420194383220645 0 0 0 0 0 1:5 2:15 3:6 4:4 5:4 6:28 7:8 8:31 
0 9.923812868889824e-07 0 0 0 0 0 0 0 0 1:24 2:3 3:13 4:17 5:19 6:26 7:22 8:3 
0 0.001474110850815498 0 0.02167443242004036 0 0 0 0 0.01451444211865453 0 1:0 2:6 3:20 4:25 5:1 6:18 7:2 8:7 
0 0 0 0 0 0 0 0 0 0.02184071049273941 1:17 2:2 3:13 4:12 5:16 6:11 7:27 8:29 
0 0 0 0 0 0.03314560296661549 0 0 0 0 1:8 2:1 3:2 4:13 5:19 6:4 7:28 8:9 
0 0 0 0 0 0 0.004128048984909845 0 0 0 1:2 2:22 3:1 4:4 5:18 6:28 7:24 8:31 
0 0.009015950739233395 0 0 0 0 0 0 0 0 1:15 2:12 3:4 4:23 5:17 6:35 7:25 8:30 
0 8.104462859441383e-06 2.033688813859331e-06 0 0 0 0 0 0 0 1:6 2:9 3:9 4:25 5:17 6:32 7:20 8:24 
0 0.0001017451253231277 0 0 0 0 0 0 0 0 1:18 2:17 3:5 4:24 5:27 6:33 7:6 8:8 
0 0 0 0 0 0.0002092356498487016 0 0 0 0 1:21 2:2 3:11 4:0 5:22 6:2 7:11 8:11 
0 0 0 0 0 0 0 0 0 0.0007517867153272234 1:5 2:1 3:21 4:14 5:24 6:11 7:11 8:23 
5.116624700568042e-07 0 0 0 0 0 0 0 0 0 1:2 2:22 3:15 4:16 5:25 6:8 7:3 8:31 
0 0 8.371356688189069e-06 0 0 0 0 0 0 0 1:12 2:11 3:0 4:28 5:12 6:21 7:2 8:6 
0 0 0 0.01563586496962836 0 0 0 0 0 0 1:9 2:2 3:19 4:35 5:16 6:33 7:0 8:31 
0 0 0 0.0001542947003453687 0 0 0 0 0.001413220660051569 0 1:12 2:17 3:6 4:7 5:15 6:16 7:18 8:2 
0 0 1.775620586269819e-06 0 0 0 0 0 0 0 1:11 2:16 3:10 4:15 5:9 6:31 7:28 8:26 
0 0.006817827109823789 0.004369820067631889 0 0.004544562402031043 0 2.712986687373922e-06 0 0 0 1:4 2:1 3:2 4:5 5:16 6:32 7:9 8:2 
0 0 0 4.068228650102485e-07 0 0 0 0 0 0 1:7 2:8 3:24 4:3 5:28 6:28 7:16 8:25 
0 0 0 0.001218456442111713 0 0 0 0 0 0 1:1 2:23 3:3 4:1 5:4 6:33 7:27 8:8 
0 1.925780382489269e-05 0 0 0 0 0 0 0 0.0006889505857035093 1:0 2:4 3:22 4:15 5:5 6:12 7:11 8:28 
0 1.886974803162638e-06 0 0.00870194205907935 0 0 0 0 0 0 1:9 2:8 3:7 4:20 5:1 6:18 7:23 8:29 
0 0 0 3.574674078148659e-05 0 0 0 0 0 0 1:8 2:11 3:5 4:21 5:24 6:18 7:12 8:32 
0 2.544858922007597e-06 8.449396609291063e-05 0 4.76050290289559e-07 0 0 0 0 0 1:7 2:17 3:11 4:3 5:14 6:29 7:12 8:24 
0 0 0.005875949584775471 0 0 0 0 0 0 0 1:2 2:16 3:3 4:33 5:11 6:20 7:8 8:35 
0 0 0 0 0 0 9.935642008569926e-05 0 0 0 1:19 2:0 3:7 4:26 5:0 6:29 7:8 8:7 
0 5.743000445581299e-06 0 0 0 0 0 0 0 0 1:11 2:7 3:4 4:10 5:25 6:27 7:15 8:28 
0 0 0 0 0 0 0 0 0 0.06436865043481493 1:1 2:14 3:13 4:23 5:17 6:13 7:13 8:22 
0 0 0 0 0 0 1.233472263803367e-05 0.0005620634437036765 0 0 1:12 2:11 3:1 4:7 5:11 6:34 7:6 8:0 
0 0 0 2.905233947299509e-05 0 0 0 0 0 0 1:8 2:9 3:11 4:9 5:31 6:22 7:3 8:17 
0 0 0 0 0 0 0 0 0.0004990099401591149 0 1:11 2:18 3:8 4:8 5:8 6:11 7:14 8:20 
0 0 0 6.853465518851916e-08 0 0 0 0 0 0 1:22 2:5 3:9 4:28 5:21 6:30 7:25 8:32 
0 0 0.0005129005737501256 0 0.01809193485087056 0 0.0002689325764191314 2.818270544237771e-05 0 0 1:2 2:10 3:22 4:16 5:14 6:35 7:0 8:16 
0 0.003631420745557417 0 0 0 0 0 0 0 0 1:1 2:15 3:5 4:4 5:33 6:30 7:10 8:0 
0 0 0.0001940111848381787 0 0 0 0.00035680476475337 0 0 0 1:14 2:16 3:7 4:3 5:3 6:34 7:33 8:13 
0 0 0 0 0 0 0 0 0.004797473414230954 0.0222747339687383 1:4 2:9 3:18 4:0 5:18 6:14 7:28 8:31 
0 2.597995169896195e-05 0 0 0 0 0.0003982579166720639 0 0 0 1:12 2:12 3:0 4:12 5:35 6:33 7:2 8:11 
0 0 0 0 0 0 0 0 0.0002744716398199363 0 1:12 2:18 3:10 4:14 5:20 6:14 7:11 8:35 
0 1.654468551326505e-06 0 0 0 0 0 0 0 0 1:6 2:0 3:26 4:17 5:13 6:26 7:1 8:12 
0 0 0 0 0 0.2878755894228472 0 0 0 0 1:7 2:8 3:17 4:20 5:11 6:1 7:5 8:8 
0 0 0 0 0 0 0 0 0.02517579611451928 0 1:3 2:6 3:29 4:2 5:34 6:23 7:1 8:5 
0 0 0 0 0 0 1.303351264488217e-05 0 0 0 1:2 2:10 3:15 4:30 5:3 6:32 7:4 8:13 
3.414039008309713e-05 0 0 0 0 0 0 0 0 0.05555565961298224 1:6 2:16 3:11 4:18 5:22 6:9 7:3 8:24 
0 0 0 2.08098508863428e-06 0 0 0 0 0.0003281670325701046 0 1:19 2:13 3:4 4:4 5:20 6:14 7:16 8:9 
0 0.0007711653061713816 0 0 0.06653530274312576 0 0.003054483065396987 0 0 0 1:12 2:13 3:10 4:5 5:10 6:34 7:27 8:4 
0 1.473493635574094e-06 0 0 0 0 0 0 0 0 1:8 2:5 3:3 4:13 5:26 6:24 7:9 8:18 
0 0.002320337228222022 0 0 0 0 0 0 0 0 1:18 2:17 3:20 4:25 5:24 6:33 7:30 8:0 
0.01685371189384734 0 0 0 0 0 0 0 0 0 1:19 2:9 3:7 4:20 5:27 6:11 7:16 8:29 
0 9.318897779024152e-06 0 0.001514892375288039 0 0 0 0 0 0 1:19 2:10 3:3 4:5 5:16 6:18 7:10 8:29 
0 0.001952599198374536 0 0 0 0 0 0 0 0 1:22 2:9 3:19 4:6 5:15 6:35 7:32 8:0 
0 0 0 0 0 0 0 0 0 0.01634821022822271 1:19 2:6 3:25 4:1 5:3 6:17 7:21 8:20 
0 0 0 0.0001316803918649875 0 0 0 0 0 0 1:10 2:18 3:6 4:20 5:21 6:14 7:2 8:3 
0 0.007980688278656726 0 0 0 0 0 0 0 0 1:25 2:7 3:21 4:6 5:28 6:35 7:35 8:3 
0 0.001898076572608306 0 0 0 0 0 0 0 0 1:2 2:0 3:23 4:11 5:1 6:16 7:1 8:9 
0 0 0.0001681177250465324 0 0 0 9.362298053136624e-08 0 0 0 1:21 2:8 3:8 4:12 5:10 6:34 7:6 8:22 
0 0 0 0.0006247310873593911 0 0 0 0 0 0 1:11 2:5 3:0 4:6 5:34 6:21 7:18 8:21 
0 0 0 0 0 0.08756849765554277 0 0 0 0 1:5 2:8 3:19 4:21 5:0 6:1 7:18 8:31 
0 0 0 0 0.0005243844210380525 0 0.0021644786603698 0 0 0 1:15 2:4 3:3 4:21 5:8 6:35 7:27 8:9 
0 0.5005378208181066 0.6562128639922877 0.08499370602864666 0.5110580501595462 0 0.6427107926697861 0 0.006928911629672395 0 1:7 2:3 3:1 4:7 5:0 6:11 7:9 8:5 
0 0 0 3.644395635160991e-06 0 0 0 0 0 0 1:10 2:9 3:18 4:16 5:5 6:23 7:25 8:21 
0 0 0 0 0 0.007073395139205201 0 0 0 0 1:21 2:8 3:1 4:4 5:16 6:1 7:6 8:18 
0 5.206791390547081e-06 0 0 0 0 0 0 0 0 1:1 2:12 3:8 4:21 5:26 6:21 7:8 8:24 
0 0 0 8.646397889653323e-06 0 0 0 0 0 0 1:12 2:4 3:16 4:11 5:13 6:20 7:18 8:6 
0 0 0 1.615225510115976e-06 0 0 0 0 0 0 1:8 2:11 3:17 4:0 5:12 6:23 7:28 8:6 
0 0 0 0.009300457383239241 0 0 0 0 0 0 1:2 2:19 3:4 4:14 5:3 6:8 7:3 8:1 
0 1.116853763021589e-08 0 0 0 0 0 0 0 0 1:13 2:15 3:8 4:23 5:11 6:30 7:26 8:33 
0 0 0.0005101215376800414 0 0 0 0 0 0 0 1:13 2:4 3:10 4:13 5:18 6:34 7:32 8:23 
0 0 0 4.970293771357738e-06 0 0 0 0 0 0 1:1 2:12 3:15 4:5 5:2 6:13 7:31 8:18 
0 0 0.002117046604888536 0 0 0 0 0 0 0 1:1 2:24 3:13 4:0 5:24 6:30 7:10 8:3 
0 9.47770174117937e-05 0.0007316343964456229 0 0.0007146198361776551 0 0.001947007829582547 0 0 0 1:7 2:16 3:9 4:18 5:29 6:35 7:6 8:14 
0 0.0001516176798823848 0.0001609080045518812 0 0 0 0 0 0 0 1:24 2:11 3:7 4:5 5:23 6:34 7:19 8:18 
0 0.002987815967400069 0 0 0 0 0 0 0 0 1:12 2:12 3:6 4:34 5:16 6:5 7:5 8:0 
0 4.326780992608653e-05 0 0 0 0 0 0 0.03424822116562211 0 1:1 2:22 3:9 4:5 5:18 6:15 7:7 8:35 
0 0.0001279488602591122 0 0 0 0 0 0 0 0 1:14 2:21 3:8 4:19 5:15 6:32 7:29 8:33 
0.0002802959712836757 0 0 0 0 0 0 0 0 0 1:10 2:8 3:10 4:7 5:25 6:5 7:16 8:28 
